{"learner":{"attributes":{"best_iteration":"373","best_score":"728.2009538875625","scikit_learn":"{\"_estimator_type\": \"regressor\"}"},"feature_names":["lep","planned_total_gen","ruzgar","gunes","price_independent_sales","gas_price","hour","day_of_week","month","is_weekend","is_holiday","price_lag_24","price_lag_48","price_lag_168","smp_lag_24","gen_deviation_lag_24","price_volatility_24h","price_momentum_24h","price_rolling_24h_mean","price_rolling_168h_mean","demand_supply_ratio","pi_offer_ratio","gas_price_lag_24","elec_gas_ratio"],"feature_types":["int","float","float","float","float","float","int","int","int","int","int","float","float","float","float","float","float","float","float","float","float","float","float","float"],"gradient_booster":{"model":{"cats":{"enc":[],"feature_segments":[],"sorted_idx":[]},"gbtree_model_param":{"num_parallel_tree":"1","num_trees":"424"},"iteration_indptr":[0,1,2,3,4,5,6,7,8,9,10,11,12,13,14,15,16,17,18,19,20,21,22,23,24,25,26,27,28,29,30,31,32,33,34,35,36,37,38,39,40,41,42,43,44,45,46,47,48,49,50,51,52,53,54,55,56,57,58,59,60,61,62,63,64,65,66,67,68,69,70,71,72,73,74,75,76,77,78,79,80,81,82,83,84,85,86,87,88,89,90,91,92,93,94,95,96,97,98,99,100,101,102,103,104,105,106,107,108,109,110,111,112,113,114,115,116,117,118,119,120,121,122,123,124,125,126,127,128,129,130,131,132,133,134,135,136,137,138,139,140,141,142,143,144,145,146,147,148,149,150,151,152,153,154,155,156,157,158,159,160,161,162,163,164,165,166,167,168,169,170,171,172,173,174,175,176,177,178,179,180,181,182,183,184,185,186,187,188,189,190,191,192,193,194,195,196,197,198,199,200,201,202,203,204,205,206,207,208,209,210,211,212,213,214,215,216,217,218,219,220,221,222,223,224,225,226,227,228,229,230,231,232,233,234,235,236,237,238,239,240,241,242,243,244,245,246,247,248,249,250,251,252,253,254,255,256,257,258,259,260,261,262,263,264,265,266,267,268,269,270,271,272,273,274,275,276,277,278,279,280,281,282,283,284,285,286,287,288,289,290,291,292,293,294,295,296,297,298,299,300,301,302,303,304,305,306,307,308,309,310,311,312,313,314,315,316,317,318,319,320,321,322,323,324,325,326,327,328,329,330,331,332,333,334,335,336,337,338,339,340,341,342,343,344,345,346,347,348,349,350,351,352,353,354,355,356,357,358,359,360,361,362,363,364,365,366,367,368,369,370,371,372,373,374,375,376,377,378,379,380,381,382,383,384,385,386,387,388,389,390,391,392,393,394,395,396,397,398,399,400,401,402,403,404,405,406,407,408,409,410,411,412,413,414,415,416,417,418,419,420,421,422,423,424],"tree_info":[0,0,0,0,0,0,0,0,0,0,0,0,0,0,0,0,0,0,0,0,0,0,0,0,0,0,0,0,0,0,0,0,0,0,0,0,0,0,0,0,0,0,0,0,0,0,0,0,0,0,0,0,0,0,0,0,0,0,0,0,0,0,0,0,0,0,0,0,0,0,0,0,0,0,0,0,0,0,0,0,0,0,0,0,0,0,0,0,0,0,0,0,0,0,0,0,0,0,0,0,0,0,0,0,0,0,0,0,0,0,0,0,0,0,0,0,0,0,0,0,0,0,0,0,0,0,0,0,0,0,0,0,0,0,0,0,0,0,0,0,0,0,0,0,0,0,0,0,0,0,0,0,0,0,0,0,0,0,0,0,0,0,0,0,0,0,0,0,0,0,0,0,0,0,0,0,0,0,0,0,0,0,0,0,0,0,0,0,0,0,0,0,0,0,0,0,0,0,0,0,0,0,0,0,0,0,0,0,0,0,0,0,0,0,0,0,0,0,0,0,0,0,0,0,0,0,0,0,0,0,0,0,0,0,0,0,0,0,0,0,0,0,0,0,0,0,0,0,0,0,0,0,0,0,0,0,0,0,0,0,0,0,0,0,0,0,0,0,0,0,0,0,0,0,0,0,0,0,0,0,0,0,0,0,0,0,0,0,0,0,0,0,0,0,0,0,0,0,0,0,0,0,0,0,0,0,0,0,0,0,0,0,0,0,0,0,0,0,0,0,0,0,0,0,0,0,0,0,0,0,0,0,0,0,0,0,0,0,0,0,0,0,0,0,0,0,0,0,0,0,0,0,0,0,0,0,0,0,0,0,0,0,0,0,0,0,0,0,0,0,0,0,0,0,0,0,0,0,0,0,0,0,0,0,0,0,0,0,0,0,0,0,0,0,0,0,0,0,0,0,0,0,0,0,0,0,0,0,0,0,0,0,0,0,0,0,0,0,0,0,0,0,0,0],"trees":[{"base_weights":[-1.6427261E0,3.434631E2,-9.5215326E2,8.442942E1,6.387542E2,-6.3727637E2,-1.5829354E3,-9.737572E2,1.2898648E2,7.135723E2,3.4871185E2,-1.3804509E3,-4.3745038E2,-1.8984265E3,-1.111608E3,-5.712968E2,-1.7628086E3,3.409752E2,-1.8167727E0,5.5533325E2,7.8829865E2,-1.01519516E2,3.9417233E2,-1.7765963E3,-1.0719299E3,-2.5848734E2,-8.51453E2,-1.6206311E3,-2.1066582E3,-1.6237762E3,-8.1419037E2,3.961771E2,-8.498189E2,-1.6811083E1,-1.8368367E3,1.06046425E2,4.422899E2,-1.04559975E2,1.6230627E2,4.7982153E2,6.302484E2,8.238309E2,6.900186E2,8.8422455E1,-4.5131573E2,4.4645587E2,1.03122955E2,-1.342851E3,-1.927887E3,-9.5303174E2,-1.6415734E3,-4.3955347E2,-9.510452E1,-5.471873E2,-1.0736066E3,-1.1444657E3,-1.7872745E3,-1.8594366E3,-2.3196895E3,-1.3326475E3,-2.0348707E3,-6.090026E2,-1.1106768E3,2.8305927E1,-6.245298E0,-1.3177381E1,-5.0852287E1,-9.436897E1,-3.427175E1,-3.8946946E0,1.1773188E1,1.8327402E1,3.0978912E1,3.781527E-2,-1.1642804E1,1.1806337E1,-2.1876235E0,7.18595E0,2.4599537E1,-2.4569824E-1,3.1945337E1,4.123551E1,3.7131348E-1,-2.097975E1,3.489014E1,1.6417004E1,-1.0461097E1,-3.4801487E1,-1.8625332E0,2.5111649E1,9.971976E0,-2.3967644E1,7.847999E0,-4.4912014E1,-8.193786E1,-8.2003235E1,-1.0524859E2,-4.8812042E1,-6.3490295E-1,-8.49702E1,-3.3514584E1,-1.541304E1,-3.4423504E1,-7.6777225E0,9.408198E0,-1.7183462E1,-3.423317E1,-3.2099827E1,-6.0054657E1,-7.874388E1,-4.3376637E1,-1.0673391E2,-7.55328E1,-6.926894E1,-1.0660201E2,-1.1875848E2,-7.319967E1,-4.3792797E1,-7.569764E1,-1.0336372E2,-2.3328688E1,-2.2776466E1,-4.2393738E1,-7.1301546E0,-5.7835182E1],"categories":[],"categories_nodes":[],"categories_segments":[],"categories_sizes":[],"default_left":[0,0,0,0,0,0,0,0,0,0,0,0,0,0,0,0,0,0,0,0,0,0,0,0,0,0,0,0,0,0,0,0,0,0,0,0,0,0,0,0,0,0,0,0,0,0,0,0,0,0,0,0,0,0,0,0,0,0,0,0,0,0,0,0,0,0,0,0,0,0,0,0,0,0,0,0,0,0,0,0,0,0,0,0,0,0,0,0,0,0,0,0,0,0,0,0,0,0,0,0,0,0,0,0,0,0,0,0,0,0,0,0,0,0,0,0,0,0,0,0,0,0,0,0,0],"id":0,"left_children":[1,3,5,7,9,11,13,15,17,19,21,23,25,27,29,31,33,35,37,39,41,43,45,47,49,51,53,55,57,59,61,63,65,-1,67,69,71,73,75,77,79,81,83,85,87,89,91,93,95,97,99,101,103,105,107,109,111,113,115,117,119,121,123,-1,-1,-1,-1,-1,-1,-1,-1,-1,-1,-1,-1,-1,-1,-1,-1,-1,-1,-1,-1,-1,-1,-1,-1,-1,-1,-1,-1,-1,-1,-1,-1,-1,-1,-1,-1,-1,-1,-1,-1,-1,-1,-1,-1,-1,-1,-1,-1,-1,-1,-1,-1,-1,-1,-1,-1,-1,-1,-1,-1,-1,-1],"loss_changes":[2.2400934E9,3.8316275E8,3.6027866E8,1.2601524E8,5.055187E7,1.7983043E8,8.785293E7,3.32896E7,7.106955E7,2.1556032E7,9.905468E6,2.950592E7,7.083334E7,1.7468288E7,3.599827E7,2.0007466E7,3.184288E6,2.3231192E7,2.676094E7,3.09176E6,3.835072E6,3.029751E6,6.61904E6,4.695136E6,8.39176E6,1.9808448E7,1.894712E7,1.0571168E7,6.37792E6,7.939872E6,8.874744E6,1.5761225E6,5.320256E6,0E0,6.84952E5,7.064639E6,8.94432E6,1.3187565E7,9.304469E6,1.168592E6,1.641976E6,6.5504E5,3.238144E6,2.2109995E6,1.5953125E6,5.011424E6,2.207635E6,2.738016E6,6.25248E5,2.693824E6,2.0898E5,1.0180304E7,5.890078E6,3.234084E6,8.362976E6,3.878328E6,7.922624E6,9.840064E6,1.50752E6,3.229032E6,8.14096E5,3.096512E6,2.642168E6,0E0,0E0,0E0,0E0,0E0,0E0,0E0,0E0,0E0,0E0,0E0,0E0,0E0,0E0,0E0,0E0,0E0,0E0,0E0,0E0,0E0,0E0,0E0,0E0,0E0,0E0,0E0,0E0,0E0,0E0,0E0,0E0,0E0,0E0,0E0,0E0,0E0,0E0,0E0,0E0,0E0,0E0,0E0,0E0,0E0,0E0,0E0,0E0,0E0,0E0,0E0,0E0,0E0,0E0,0E0,0E0,0E0,0E0,0E0,0E0,0E0,0E0],"parents":[2147483647,0,0,1,1,2,2,3,3,4,4,5,5,6,6,7,7,8,8,9,9,10,10,11,11,12,12,13,13,14,14,15,15,16,16,17,17,18,18,19,19,20,20,21,21,22,22,23,23,24,24,25,25,26,26,27,27,28,28,29,29,30,30,31,31,32,32,34,34,35,35,36,36,37,37,38,38,39,39,40,40,41,41,42,42,43,43,44,44,45,45,46,46,47,47,48,48,49,49,50,50,51,51,52,52,53,53,54,54,55,55,56,56,57,57,58,58,59,59,60,60,61,61,62,62],"right_children":[2,4,6,8,10,12,14,16,18,20,22,24,26,28,30,32,34,36,38,40,42,44,46,48,50,52,54,56,58,60,62,64,66,-1,68,70,72,74,76,78,80,82,84,86,88,90,92,94,96,98,100,102,104,106,108,110,112,114,116,118,120,122,124,-1,-1,-1,-1,-1,-1,-1,-1,-1,-1,-1,-1,-1,-1,-1,-1,-1,-1,-1,-1,-1,-1,-1,-1,-1,-1,-1,-1,-1,-1,-1,-1,-1,-1,-1,-1,-1,-1,-1,-1,-1,-1,-1,-1,-1,-1,-1,-1,-1,-1,-1,-1,-1,-1,-1,-1,-1,-1,-1,-1,-1,-1],"split_conditions":[4.424118E-1,2.99E3,5.3775823E-1,1.3604325E3,3.5756412E-1,1.9432903E3,1.3578649E-1,1.465118E4,3.47401E-1,3.24998E3,1.9940265E3,1.6438856E3,8.75746E3,5.903986E-1,-9.4286E2,3.711747E-1,3.0665034E-1,8.74E0,2.7101E3,3.005E3,3.0944848E-1,3.95251E-1,8.86145E3,3E0,5.085012E-1,1.8282448E-1,4.781676E-1,1.372114E4,1.410725E4,6.0633755E-1,6.0633755E-1,3.60427E-1,5.445347E2,-1.6811083E1,1.75E3,1.9742785E-1,3.13682E3,3.9977586E-1,4.1063344E-1,1.77511E3,1.9062753E3,1.050117E4,1.232595E3,2.40001E3,2.3875388E3,4.1574767E-1,3E0,6.5095E2,1.1257927E3,3.32E3,1.23899E3,4.9952987E-1,3.06954E3,9E0,1.288271E4,1.73998E3,9.99E2,6.81897E3,1.82009E3,1.345119E4,4.2842E4,9E0,1.223119E4,2.8305927E1,-6.245298E0,-1.3177381E1,-5.0852287E1,-9.436897E1,-3.427175E1,-3.8946946E0,1.1773188E1,1.8327402E1,3.0978912E1,3.781527E-2,-1.1642804E1,1.1806337E1,-2.1876235E0,7.18595E0,2.4599537E1,-2.4569824E-1,3.1945337E1,4.123551E1,3.7131348E-1,-2.097975E1,3.489014E1,1.6417004E1,-1.0461097E1,-3.4801487E1,-1.8625332E0,2.5111649E1,9.971976E0,-2.3967644E1,7.847999E0,-4.4912014E1,-8.193786E1,-8.2003235E1,-1.0524859E2,-4.8812042E1,-6.3490295E-1,-8.49702E1,-3.3514584E1,-1.541304E1,-3.4423504E1,-7.6777225E0,9.408198E0,-1.7183462E1,-3.423317E1,-3.2099827E1,-6.0054657E1,-7.874388E1,-4.3376637E1,-1.0673391E2,-7.55328E1,-6.926894E1,-1.0660201E2,-1.1875848E2,-7.319967E1,-4.3792797E1,-7.569764E1,-1.0336372E2,-2.3328688E1,-2.2776466E1,-4.2393738E1,-7.1301546E0,-5.7835182E1],"split_indices":[21,11,21,19,21,19,23,22,21,11,19,19,3,21,15,21,21,3,13,13,21,21,3,8,21,23,21,22,22,21,21,21,16,0,11,23,13,21,21,14,19,3,19,13,18,21,8,3,19,13,17,21,13,6,22,13,11,3,15,22,0,6,22,0,0,0,0,0,0,0,0,0,0,0,0,0,0,0,0,0,0,0,0,0,0,0,0,0,0,0,0,0,0,0,0,0,0,0,0,0,0,0,0,0,0,0,0,0,0,0,0,0,0,0,0,0,0,0,0,0,0,0,0,0,0],"split_type":[0,0,0,0,0,0,0,0,0,0,0,0,0,0,0,0,0,0,0,0,0,0,0,0,0,0,0,0,0,0,0,0,0,0,0,0,0,0,0,0,0,0,0,0,0,0,0,0,0,0,0,0,0,0,0,0,0,0,0,0,0,0,0,0,0,0,0,0,0,0,0,0,0,0,0,0,0,0,0,0,0,0,0,0,0,0,0,0,0,0,0,0,0,0,0,0,0,0,0,0,0,0,0,0,0,0,0,0,0,0,0,0,0,0,0,0,0,0,0,0,0,0,0,0,0],"sum_hessian":[6.827E3,5.009E3,1.818E3,2.669E3,2.34E3,1.214E3,6.04E2,1.07E2,2.562E3,1.859E3,4.81E2,2.56E2,9.58E2,3.6E2,2.44E2,7.2E1,3.5E1,9.77E2,1.585E3,5.99E2,1.26E3,4.4E1,4.37E2,1.1E2,1.46E2,6.7E2,2.88E2,1.58E2,2.02E2,8.8E1,1.56E2,1.6E1,5.6E1,2E0,3.3E1,2.95E2,6.82E2,9.75E2,6.1E2,3.02E2,2.97E2,9.2E2,3.4E2,2.9E1,1.5E1,3.7E2,6.7E1,3.1E1,7.9E1,1.23E2,2.3E1,3.17E2,3.53E2,1.23E2,1.65E2,4.3E1,1.15E2,9.8E1,1.04E2,5.4E1,3.4E1,9.4E1,6.2E1,1.2E1,4E0,1.3E1,4.3E1,3.1E1,2E0,1.22E2,1.73E2,4.8E2,2.02E2,5.36E2,4.39E2,4.49E2,1.61E2,1.1E1,2.91E2,4E0,2.93E2,9.19E2,1E0,2E0,3.38E2,1.6E1,1.3E1,9E0,6E0,3.01E2,6.9E1,5E0,6.2E1,1.4E1,1.7E1,3.4E1,4.5E1,1.2E2,3E0,2.1E1,2E0,2.09E2,1.08E2,2.93E2,6E1,5.1E1,7.2E1,3.9E1,1.26E2,1.5E1,2.8E1,4.8E1,6.7E1,3.8E1,6E1,9.6E1,8E0,1.7E1,3.7E1,3.3E1,1E0,5.9E1,3.5E1,3E0,5.9E1],"tree_param":{"num_deleted":"0","num_feature":"24","num_nodes":"125","size_leaf_vector":"1"}},{"base_weights":[-2.124271E0,2.6847363E2,-1.113557E3,5.25962E2,-4.2133743E1,-1.552798E3,-7.136338E2,3.1709445E2,7.139535E2,-6.5347034E2,3.84255E1,-1.2687723E3,-1.9118918E3,-5.251773E2,-1.3783214E3,1.0142458E2,4.0982172E2,6.132203E2,7.679613E2,-5.655763E2,-9.824377E1,-1.0917725E2,2.3005591E2,-6.5571826E2,-1.4160958E3,-2.121331E3,-1.5846365E3,-1.1002454E3,-4.1568875E2,-2.0485522E3,-1.2024843E3,-1.0033951E3,1.4064095E2,3.328708E2,5.729946E2,6.7378754E2,5.2732086E2,-2.2248037E1,7.719184E2,-2.773609E2,-8.093749E2,2.2847921E1,-2.5286386E2,3.375374E2,4.7593987E1,-9.052357E2,-3.8105533E2,-1.591409E3,-1.00688043E3,-4.0714943E1,-2.1400469E3,-1.9032119E3,-1.379639E3,-8.882238E2,-1.2436172E3,-1.6432153E2,-5.5377057E2,-2.1757307E1,-2.0878276E3,-9.686122E2,-1.5502301E3,2.8118555E1,-6.4377075E1,5.1081246E-1,1.4553929E1,1.1234366E1,2.0127296E1,2.9243881E1,-2.5747644E1,8.788968E0,3.3893444E1,2.3543125E1,3.1512121E1,3.909847E1,2.6973963E1,1.3177449E1,-1.9299192E1,-2.7691391E1,-5.2706512E1,8.542579E0,-4.2887206E0,-6.550851E0,-1.8515032E1,1.1723097E1,2.792478E1,5.9268475E0,-9.345775E0,-5.2212017E1,-2.841428E1,-2.3562984E0,-3.0866611E1,-1.0092528E2,-7.068829E1,-1.4385216E1,-6.0412464E1,-1.0733018E2,-2.6455118E1,-9.6645294E1,-1.7144018E1,-4.4374657E1,-7.681832E1,9.488757E0,-4.607931E1,-6.426286E1,-2.2172104E1,-1.1717616E1,1.6685942E1,-5.717273E1,-2.5273026E1,-3.0507557E1,-1.0588711E2,5.599756E0,-4.920503E1,-4.415362E1,-8.3913185E1],"categories":[],"categories_nodes":[],"categories_segments":[],"categories_sizes":[],"default_left":[0,0,0,0,0,0,0,0,0,0,0,0,0,0,0,0,0,0,0,0,0,0,0,0,0,0,0,0,0,0,0,0,0,0,0,0,0,0,0,0,0,0,0,0,0,0,0,0,0,0,0,0,0,0,0,0,0,0,0,0,0,0,0,0,0,0,0,0,0,0,0,0,0,0,0,0,0,0,0,0,0,0,0,0,0,0,0,0,0,0,0,0,0,0,0,0,0,0,0,0,0,0,0,0,0,0,0,0,0,0,0,0,0,0,0],"id":1,"left_children":[1,3,5,7,9,11,13,15,17,19,21,23,25,27,29,31,33,35,37,39,-1,41,43,45,47,49,51,53,55,57,59,61,63,65,67,69,71,-1,73,75,77,79,81,83,85,87,89,91,93,-1,95,97,99,101,103,105,107,-1,109,111,113,-1,-1,-1,-1,-1,-1,-1,-1,-1,-1,-1,-1,-1,-1,-1,-1,-1,-1,-1,-1,-1,-1,-1,-1,-1,-1,-1,-1,-1,-1,-1,-1,-1,-1,-1,-1,-1,-1,-1,-1,-1,-1,-1,-1,-1,-1,-1,-1,-1,-1,-1,-1,-1,-1],"loss_changes":[2.0751825E9,4.438189E8,2.3621222E8,1.1890451E8,1.2393511E8,6.3154944E7,8.80888E7,2.873624E7,8.211904E6,3.266128E7,6.293135E7,3.1766208E7,1.5966784E7,3.442435E7,1.5921504E7,1.8945038E7,1.2440912E7,2.568608E6,5.311168E6,1.9169064E7,0E0,2.3851386E7,1.8967644E7,4.589442E6,1.9274304E7,2.391488E6,4.819264E6,1.570408E6,1.6118216E7,1.055864E6,8.74576E6,7.397679E6,8.237755E6,5.080416E6,4.451096E6,5.43456E5,1.080396E6,0E0,1.989056E6,7.622395E6,8.735624E6,1.056084E7,8.56568E6,1.3739264E7,6.0114035E6,1.139564E6,2.811299E6,1.2472192E7,1.2686144E7,0E0,6.17536E5,1.2832E6,4.267168E6,1.577518E6,1.096024E6,5.902861E6,7.996824E6,0E0,3.3984E4,1.415688E6,2.703488E6,0E0,0E0,0E0,0E0,0E0,0E0,0E0,0E0,0E0,0E0,0E0,0E0,0E0,0E0,0E0,0E0,0E0,0E0,0E0,0E0,0E0,0E0,0E0,0E0,0E0,0E0,0E0,0E0,0E0,0E0,0E0,0E0,0E0,0E0,0E0,0E0,0E0,0E0,0E0,0E0,0E0,0E0,0E0,0E0,0E0,0E0,0E0,0E0,0E0,0E0,0E0,0E0,0E0,0E0],"parents":[2147483647,0,0,1,1,2,2,3,3,4,4,5,5,6,6,7,7,8,8,9,9,10,10,11,11,12,12,13,13,14,14,15,15,16,16,17,17,18,18,19,19,21,21,22,22,23,23,24,24,25,25,26,26,27,27,28,28,29,29,30,30,31,31,32,32,33,33,34,34,35,35,36,36,38,38,39,39,40,40,41,41,42,42,43,43,44,44,45,45,46,46,47,47,48,48,50,50,51,51,52,52,53,53,54,54,55,55,56,56,58,58,59,59,60,60],"right_children":[2,4,6,8,10,12,14,16,18,20,22,24,26,28,30,32,34,36,38,40,-1,42,44,46,48,50,52,54,56,58,60,62,64,66,68,70,72,-1,74,76,78,80,82,84,86,88,90,92,94,-1,96,98,100,102,104,106,108,-1,110,112,114,-1,-1,-1,-1,-1,-1,-1,-1,-1,-1,-1,-1,-1,-1,-1,-1,-1,-1,-1,-1,-1,-1,-1,-1,-1,-1,-1,-1,-1,-1,-1,-1,-1,-1,-1,-1,-1,-1,-1,-1,-1,-1,-1,-1,-1,-1,-1,-1,-1,-1,-1,-1,-1,-1],"split_conditions":[4.7387245E-1,3.5756412E-1,1.2655754E-1,3.1E3,1.9062753E3,5.583731E-1,1.95476E4,2.59999E3,3.35999E3,4E0,2.0073457E-1,1.390514E4,1.0604541E0,1.5274E3,3.4956E4,1.3137703E3,3.12999E3,3.127181E-1,1.6226626E3,4.13521E-1,-9.824377E1,4.1203704E-1,4.1203704E-1,1.259909E4,2.3780762E3,2.334711E4,2.228367E3,6E0,1.58405E4,1.96443E4,1.435505E4,1.447559E4,1.390514E4,2.775E3,1.489729E4,2.119419E-1,1.076172E0,-2.2248037E1,1.45264E4,6E0,1.1E1,1.56293E3,9E0,3.19697E3,1.66046E4,2.5062148E3,-7.9701E2,2.309E2,6E0,-4.0714943E1,1.81197E3,4.7785E4,1.8832E4,3.2661E4,3.7943E4,2.95125E3,3.0732E4,-2.1757307E1,1E0,9.581557E-1,3.508263E2,2.8118555E1,-6.4377075E1,5.1081246E-1,1.4553929E1,1.1234366E1,2.0127296E1,2.9243881E1,-2.5747644E1,8.788968E0,3.3893444E1,2.3543125E1,3.1512121E1,3.909847E1,2.6973963E1,1.3177449E1,-1.9299192E1,-2.7691391E1,-5.2706512E1,8.542579E0,-4.2887206E0,-6.550851E0,-1.8515032E1,1.1723097E1,2.792478E1,5.9268475E0,-9.345775E0,-5.2212017E1,-2.841428E1,-2.3562984E0,-3.0866611E1,-1.0092528E2,-7.068829E1,-1.4385216E1,-6.0412464E1,-1.0733018E2,-2.6455118E1,-9.6645294E1,-1.7144018E1,-4.4374657E1,-7.681832E1,9.488757E0,-4.607931E1,-6.426286E1,-2.2172104E1,-1.1717616E1,1.6685942E1,-5.717273E1,-2.5273026E1,-3.0507557E1,-1.0588711E2,5.599756E0,-4.920503E1,-4.415362E1,-8.3913185E1],"split_indices":[21,21,23,11,19,21,4,13,11,8,23,5,20,13,0,19,13,21,19,21,0,21,21,22,19,1,19,7,4,4,5,5,5,11,22,23,20,0,4,6,6,15,6,11,4,19,17,11,6,0,11,0,4,0,0,11,0,0,7,20,16,0,0,0,0,0,0,0,0,0,0,0,0,0,0,0,0,0,0,0,0,0,0,0,0,0,0,0,0,0,0,0,0,0,0,0,0,0,0,0,0,0,0,0,0,0,0,0,0,0,0,0,0,0,0],"split_type":[0,0,0,0,0,0,0,0,0,0,0,0,0,0,0,0,0,0,0,0,0,0,0,0,0,0,0,0,0,0,0,0,0,0,0,0,0,0,0,0,0,0,0,0,0,0,0,0,0,0,0,0,0,0,0,0,0,0,0,0,0,0,0,0,0,0,0,0,0,0,0,0,0,0,0,0,0,0,0,0,0,0,0,0,0,0,0,0,0,0,0,0,0,0,0,0,0,0,0,0,0,0,0,0,0,0,0,0,0,0,0,0,0,0,0],"sum_hessian":[6.898E3,5.548E3,1.35E3,3.033E3,2.515E3,6.42E2,7.08E2,1.438E3,1.595E3,2.92E2,2.223E3,3.61E2,2.81E2,5.53E2,1.55E2,4.33E2,1.005E3,5.61E2,1.034E3,2.75E2,1.7E1,1.256E3,9.67E2,7.1E1,2.9E2,1.68E2,1.13E2,8.7E1,4.66E2,3E1,1.25E2,1.4E1,4.19E2,6.85E2,3.2E2,3.25E2,2.36E2,3E0,1.031E3,1.27E2,1.48E2,6.55E2,6.01E2,6.08E2,3.59E2,3.6E1,3.5E1,2.01E2,8.9E1,3E0,1.65E2,4.1E1,7.2E1,3.8E1,4.9E1,1.66E2,3E2,1E0,2.9E1,7.7E1,4.8E1,2E0,1.2E1,2.25E2,1.94E2,2.7E2,4.15E2,3.17E2,3E0,3E0,3.22E2,1.56E2,8E1,9.86E2,4.5E1,2.1E1,1.06E2,7.4E1,7.4E1,2.77E2,3.78E2,2.96E2,3.05E2,4.16E2,1.92E2,2.76E2,8.3E1,2.4E1,1.2E1,1.5E1,2E1,5.6E1,1.45E2,2E1,6.9E1,1.64E2,1E0,4E1,1E0,1.9E1,5.3E1,1E0,3.7E1,4.6E1,3E0,1.46E2,2E1,2.1E1,2.79E2,1E0,2.8E1,1E0,7.6E1,9E0,3.9E1],"tree_param":{"num_deleted":"0","num_feature":"24","num_nodes":"115","size_leaf_vector":"1"}},{"base_weights":[9.819941E-1,2.559073E2,-1.0707891E3,5.0127426E2,-4.76345E1,-1.4773854E3,-6.865683E2,3.303686E2,6.8735345E2,-6.33631E2,3.1917356E1,-1.2093871E3,-1.8145171E3,-5.51823E2,-1.4347378E3,3.4728372E2,-5.9677356E2,6.919734E2,-5.513922E2,-5.284178E2,-9.297457E1,-1.1006151E2,2.2088504E2,-1.9420851E3,-1.0817583E3,-2.0257611E3,-1.4965773E3,-4.3555264E2,-9.292745E2,-1.2486226E3,-9.689506E1,8.048961E1,4.1154593E2,2.2721524E2,-1.2804653E3,5.5115186E2,7.308611E2,-6.545549E2,-8.894715E-1,-2.2020468E2,-7.971237E2,2.4391409E1,-2.6802173E2,3.2039487E2,4.9491684E1,-4.2362038E1,-1.0078356E2,-6.3467706E2,-1.2280378E3,-3.9188137E1,-2.0438116E3,-9.871371E1,-1.3701992E3,-3.4211438E2,-7.445755E2,-7.538267E2,-1.4704398E3,-1.2732223E3,-2.0922176E2,-2.6838562E0,1.5668241E1,2.900775E1,1.8441021E1,6.398519E-1,1.724573E1,-1.2139472E1,-6.66729E1,2.9460398E1,1.993267E1,3.6877808E1,2.7137589E1,-3.607931E1,-9.660743E0,1.1353846E1,-1.7609356E1,-2.129225E1,-4.959796E1,-9.96793E0,6.961091E0,-9.377121E0,-2.6642948E1,1.1791668E1,2.4972775E1,3.8306253E0,-1.7608679E1,-1.0470084E1,-4.1566383E1,-3.9323837E1,-6.712992E1,-1.033126E2,-5.561224E1,-5.5835255E1,-7.975738E1,-1.0834921E1,-2.9389515E1,-2.4461948E1,-4.298013E1,-4.4147804E1,-2.2462336E1,-7.801234E1,-4.1111655E0,-3.8112286E1,-6.739842E1,-1.5472443E1,-2.1918945E-1],"categories":[],"categories_nodes":[],"categories_segments":[],"categories_sizes":[],"default_left":[0,0,0,0,0,0,0,0,0,0,0,0,0,0,0,0,0,0,0,0,0,0,0,0,0,0,0,0,0,0,0,0,0,0,0,0,0,0,0,0,0,0,0,0,0,0,0,0,0,0,0,0,0,0,0,0,0,0,0,0,0,0,0,0,0,0,0,0,0,0,0,0,0,0,0,0,0,0,0,0,0,0,0,0,0,0,0,0,0,0,0,0,0,0,0,0,0,0,0,0,0,0,0,0,0],"id":2,"left_children":[1,3,5,7,9,11,13,15,17,19,21,23,25,27,29,31,33,35,37,39,-1,41,43,45,47,49,51,53,55,57,-1,59,61,63,65,67,69,71,-1,73,75,77,79,81,83,-1,-1,85,87,-1,89,-1,91,93,95,97,99,101,103,-1,-1,-1,-1,-1,-1,-1,-1,-1,-1,-1,-1,-1,-1,-1,-1,-1,-1,-1,-1,-1,-1,-1,-1,-1,-1,-1,-1,-1,-1,-1,-1,-1,-1,-1,-1,-1,-1,-1,-1,-1,-1,-1,-1,-1,-1],"loss_changes":[1.8726615E9,4.1241485E8,2.0473088E8,9.715053E7,1.1544418E8,5.553971E7,6.765981E7,2.526824E7,8.765632E6,3.719453E7,5.8539264E7,3.1470432E7,1.5841088E7,2.4917728E7,7.225888E6,2.6884176E7,1.6628219E7,7.592512E6,3.1864338E5,2.2516792E7,0E0,2.6469352E7,1.5947924E7,2.481664E6,1.9363424E7,2.119616E6,4.297808E6,1.2536704E7,1.170928E7,1.727992E6,0E0,9.577518E6,8.898976E6,3.4890244E5,5.56074E5,1.622224E6,1.036672E6,1.52E4,0E0,7.695271E6,1.0138968E7,1.7345042E7,1.211294E7,8.846064E6,3.7852348E6,0E0,0E0,6.34911E6,1.0629344E7,0E0,1.109312E6,0E0,3.635888E6,1.041022E7,2.575248E6,3.693676E6,3.861192E6,1.875224E6,6.023439E4,0E0,0E0,0E0,0E0,0E0,0E0,0E0,0E0,0E0,0E0,0E0,0E0,0E0,0E0,0E0,0E0,0E0,0E0,0E0,0E0,0E0,0E0,0E0,0E0,0E0,0E0,0E0,0E0,0E0,0E0,0E0,0E0,0E0,0E0,0E0,0E0,0E0,0E0,0E0,0E0,0E0,0E0,0E0,0E0,0E0,0E0],"parents":[2147483647,0,0,1,1,2,2,3,3,4,4,5,5,6,6,7,7,8,8,9,9,10,10,11,11,12,12,13,13,14,14,15,15,16,16,17,17,18,18,19,19,21,21,22,22,23,23,24,24,25,25,26,26,27,27,28,28,29,29,31,31,32,32,33,33,34,34,35,35,36,36,37,37,39,39,40,40,41,41,42,42,43,43,44,44,47,47,48,48,50,50,52,52,53,53,54,54,55,55,56,56,57,57,58,58],"right_children":[2,4,6,8,10,12,14,16,18,20,22,24,26,28,30,32,34,36,38,40,-1,42,44,46,48,50,52,54,56,58,-1,60,62,64,66,68,70,72,-1,74,76,78,80,82,84,-1,-1,86,88,-1,90,-1,92,94,96,98,100,102,104,-1,-1,-1,-1,-1,-1,-1,-1,-1,-1,-1,-1,-1,-1,-1,-1,-1,-1,-1,-1,-1,-1,-1,-1,-1,-1,-1,-1,-1,-1,-1,-1,-1,-1,-1,-1,-1,-1,-1,-1,-1,-1,-1,-1,-1,-1],"split_conditions":[4.7387245E-1,3.5756412E-1,1.2979841E-1,3.145E3,1.9289092E3,5.583731E-1,2.02482E4,1.500448E4,1.500448E4,1.479381E4,2.0073457E-1,1.08533E3,1.0613985E0,5.629995E-1,6.5007645E-1,9E-2,1.88787E3,2.2256751E-1,4.298703E4,4.13521E-1,-9.297457E1,4.13521E-1,4.1203704E-1,3.09219E3,1.393632E4,2.334711E4,1.9473009E3,6.81897E3,3.17483E3,1.118312E4,-9.689506E1,2.87091E3,2.84721E-1,1.5932024E-1,3.0665034E-1,3.3504862E-1,1.45264E4,4.257311E4,-8.894715E-1,7E0,7E0,1.361E1,1.78874E4,3.15001E3,1.83405E4,-4.2362038E1,-1.0078356E2,2.1207507E3,6E0,-3.9188137E1,2.9165315E3,-9.871371E1,1.99154E4,7.844E3,4.9460018E-1,2.54701E3,2.350628E-1,2.90544E3,4.275068E4,-2.6838562E0,1.5668241E1,2.900775E1,1.8441021E1,6.398519E-1,1.724573E1,-1.2139472E1,-6.66729E1,2.9460398E1,1.993267E1,3.6877808E1,2.7137589E1,-3.607931E1,-9.660743E0,1.1353846E1,-1.7609356E1,-2.129225E1,-4.959796E1,-9.96793E0,6.961091E0,-9.377121E0,-2.6642948E1,1.1791668E1,2.4972775E1,3.8306253E0,-1.7608679E1,-1.0470084E1,-4.1566383E1,-3.9323837E1,-6.712992E1,-1.033126E2,-5.561224E1,-5.5835255E1,-7.975738E1,-1.0834921E1,-2.9389515E1,-2.4461948E1,-4.298013E1,-4.4147804E1,-2.2462336E1,-7.801234E1,-4.1111655E0,-3.8112286E1,-6.739842E1,-1.5472443E1,-2.1918945E-1],"split_indices":[21,21,23,12,19,21,4,22,22,22,23,18,20,21,21,3,2,23,1,21,0,21,21,2,5,1,19,3,3,2,0,14,21,23,21,21,4,1,0,6,6,3,4,12,4,0,0,19,6,0,19,0,4,2,21,14,23,2,1,0,0,0,0,0,0,0,0,0,0,0,0,0,0,0,0,0,0,0,0,0,0,0,0,0,0,0,0,0,0,0,0,0,0,0,0,0,0,0,0,0,0,0,0,0,0],"split_type":[0,0,0,0,0,0,0,0,0,0,0,0,0,0,0,0,0,0,0,0,0,0,0,0,0,0,0,0,0,0,0,0,0,0,0,0,0,0,0,0,0,0,0,0,0,0,0,0,0,0,0,0,0,0,0,0,0,0,0,0,0,0,0,0,0,0,0,0,0,0,0,0,0,0,0,0,0,0,0,0,0,0,0,0,0,0,0,0,0,0,0,0,0,0,0,0,0,0,0,0,0,0,0,0,0],"sum_hessian":[6.852E3,5.536E3,1.316E3,3.061E3,2.475E3,6.38E2,6.78E2,1.597E3,1.464E3,2.95E2,2.18E3,3.58E2,2.8E2,5.76E2,1.02E2,1.569E3,2.8E1,1.459E3,5E0,2.73E2,2.2E1,1.245E3,9.35E2,5.1E1,3.07E2,1.65E2,1.15E2,4.42E2,1.34E2,7.7E1,2.5E1,3.05E2,1.264E3,1.3E1,1.5E1,3.19E2,1.14E3,4E0,1E0,1.28E2,1.45E2,6.73E2,5.72E2,5.91E2,3.44E2,4E0,4.7E1,7.7E1,2.3E2,3E0,1.62E2,2.1E1,9.4E1,3.41E2,1.01E2,1.03E2,3.1E1,7.5E1,2E0,1.94E2,1.11E2,2.53E2,1.011E3,5E0,8E0,1E0,1.4E1,2.53E2,6.6E1,1.098E3,4.2E1,3E0,1E0,2.9E1,9.9E1,5.1E1,9.4E1,2.28E2,4.45E2,4.4E2,1.32E2,4.03E2,1.88E2,3.23E2,2.1E1,2.5E1,5.2E1,4.9E1,1.81E2,1.57E2,5E0,4.7E1,4.7E1,2.27E2,1.14E2,3.3E1,6.8E1,7.1E1,3.2E1,2.9E1,2E0,1.1E1,6.4E1,1E0,1E0],"tree_param":{"num_deleted":"0","num_feature":"24","num_nodes":"105","size_leaf_vector":"1"}},{"base_weights":[-3.2554579E0,2.973381E2,-8.2339575E2,3.734618E1,5.1869604E2,-5.3728827E2,-1.339402E3,-8.087564E2,7.838728E1,3.6858008E2,6.387633E2,-1.1413905E3,-3.647599E2,-1.6476798E3,-9.27263E2,-4.7276572E2,-1.4864296E3,1.4482861E1,4.1935287E2,4.4167947E2,1.751758E2,6.571642E2,7.8207794E1,-1.6445795E3,-9.4309644E2,-2.2985022E2,-7.50464E2,-1.8637185E3,-1.3831244E3,-1.3738403E3,-6.561143E2,1.8659161E2,-8.2006836E2,-1.693763E2,-1.5611184E3,9.967035E1,-1.8314755E2,4.808726E2,1.0346346E2,3.8638388E2,5.228968E2,2.7429926E2,3.312237E1,5.5565027E2,7.136906E2,2.2733214E2,-6.0982623E2,-4.4714478E1,-1.7231646E3,-1.5345116E3,-8.363725E2,-1.8163368E2,-7.587373E2,-4.1551712E2,-8.981643E2,-1.6243081E3,-1.96972E3,-9.6890045E2,-1.5497072E3,-1.198886E3,-9.463684E1,-5.2176587E2,-1.0415939E3,2.6013716E1,-6.82923E0,1.5190089E0,-5.0855236E1,-1.1835986E1,-8.672363E-1,-7.9147E1,-2.1570648E1,-1.6404656E0,9.728352E0,-2.710325E1,-7.1096153E0,1.5169524E1,2.6429152E1,1.0739263E1,-3.095729E1,2.3039705E1,1.6725622E1,3.1591867E1,2.4631346E1,1.0193582E1,1.9637985E1,7.279139E0,-1.333286E1,3.2105656E1,2.320188E1,3.6120846E1,2.6271921E1,-1.4357875E1,2.0127985E1,-1.3788279E1,-4.109608E1,-8.67702E1,-2.3495874E1,-9.0371185E1,-5.100051E1,-3.3555492E1,-5.420547E1,-1.6103193E1,-1.749219E-2,-2.235998E1,-7.645514E1,-1.2430665E1,-2.9471186E1,-2.9503174E1,-5.0439247E1,-5.0046455E1,-8.700078E1,-1.49741335E1,-9.899368E1,-5.4568226E1,-2.0661436E1,-8.305094E1,-5.153066E1,-6.583262E1,-3.695501E1,-1.9459654E1,-3.9204613E1,-4.5168713E1,-6.732082E1],"categories":[],"categories_nodes":[],"categories_segments":[],"categories_sizes":[],"default_left":[0,0,0,0,0,0,0,0,0,0,0,0,0,0,0,0,0,0,0,0,0,0,0,0,0,0,0,0,0,0,0,0,0,0,0,0,0,0,0,0,0,0,0,0,0,0,0,0,0,0,0,0,0,0,0,0,0,0,0,0,0,0,0,0,0,0,0,0,0,0,0,0,0,0,0,0,0,0,0,0,0,0,0,0,0,0,0,0,0,0,0,0,0,0,0,0,0,0,0,0,0,0,0,0,0,0,0,0,0,0,0,0,0,0,0,0,0,0,0,0,0,0,0],"id":3,"left_children":[1,3,5,7,9,11,13,15,17,19,21,23,25,27,29,31,33,35,37,39,41,43,45,47,49,51,53,55,57,59,61,63,65,67,69,71,73,75,77,79,81,83,85,87,89,91,93,-1,95,97,99,101,103,105,107,109,111,113,115,117,-1,119,121,-1,-1,-1,-1,-1,-1,-1,-1,-1,-1,-1,-1,-1,-1,-1,-1,-1,-1,-1,-1,-1,-1,-1,-1,-1,-1,-1,-1,-1,-1,-1,-1,-1,-1,-1,-1,-1,-1,-1,-1,-1,-1,-1,-1,-1,-1,-1,-1,-1,-1,-1,-1,-1,-1,-1,-1,-1,-1,-1,-1],"loss_changes":[1.6921727E9,2.8906064E8,2.7107315E8,8.0312824E7,4.8663744E7,1.2319427E8,8.181914E7,2.3660296E7,4.803913E7,1.7001024E7,1.548256E7,2.4690976E7,4.790803E7,1.8797824E7,3.3366736E7,1.6869764E7,3.178504E6,3.1298872E7,6.71308E6,3.732048E6,4.67983E6,7.969728E6,5.1661615E6,2.763184E6,1.0772144E7,1.7355948E7,1.1450544E7,1.95232E6,1.0366912E7,7.353856E6,8.674896E6,2.8748575E6,8.074222E6,2.6609148E4,1.30608E5,1.6337254E7,8.154668E6,2.303752E6,4.798628E6,1.87224E6,8.49504E5,1.555133E6,4.691261E6,3.868528E6,1.153088E6,3.811861E6,4.11017E5,0E0,1.81568E5,2.087996E6,5.986864E6,1.6038248E7,1.2996066E7,2.030387E6,5.028328E6,3.163168E6,1.713536E6,3.087604E6,5.27968E6,3.466936E6,0E0,4.355E6,6.79644E5,0E0,0E0,0E0,0E0,0E0,0E0,0E0,0E0,0E0,0E0,0E0,0E0,0E0,0E0,0E0,0E0,0E0,0E0,0E0,0E0,0E0,0E0,0E0,0E0,0E0,0E0,0E0,0E0,0E0,0E0,0E0,0E0,0E0,0E0,0E0,0E0,0E0,0E0,0E0,0E0,0E0,0E0,0E0,0E0,0E0,0E0,0E0,0E0,0E0,0E0,0E0,0E0,0E0,0E0,0E0,0E0,0E0,0E0,0E0,0E0],"parents":[2147483647,0,0,1,1,2,2,3,3,4,4,5,5,6,6,7,7,8,8,9,9,10,10,11,11,12,12,13,13,14,14,15,15,16,16,17,17,18,18,19,19,20,20,21,21,22,22,23,23,24,24,25,25,26,26,27,27,28,28,29,29,30,30,31,31,32,32,33,33,34,34,35,35,36,36,37,37,38,38,39,39,40,40,41,41,42,42,43,43,44,44,45,45,46,46,48,48,49,49,50,50,51,51,52,52,53,53,54,54,55,55,56,56,57,57,58,58,59,59,61,61,62,62],"right_children":[2,4,6,8,10,12,14,16,18,20,22,24,26,28,30,32,34,36,38,40,42,44,46,48,50,52,54,56,58,60,62,64,66,68,70,72,74,76,78,80,82,84,86,88,90,92,94,-1,96,98,100,102,104,106,108,110,112,114,116,118,-1,120,122,-1,-1,-1,-1,-1,-1,-1,-1,-1,-1,-1,-1,-1,-1,-1,-1,-1,-1,-1,-1,-1,-1,-1,-1,-1,-1,-1,-1,-1,-1,-1,-1,-1,-1,-1,-1,-1,-1,-1,-1,-1,-1,-1,-1,-1,-1,-1,-1,-1,-1,-1,-1,-1,-1,-1,-1,-1,-1,-1,-1],"split_conditions":[4.424118E-1,2.90001E3,5.341431E-1,1.3604325E3,3.23E3,1.9432903E3,1.79997E3,1.465118E4,3.05141E3,3.7210542E-1,1.58908E4,1.3604325E3,1.83405E4,1.0608922E0,-3.6278E2,3.7399098E-1,3.0665034E-1,4.0073615E-1,4.0073615E-1,3.005E3,1.433237E4,3.30925E3,4.1063344E-1,3.36488E3,2.309E2,9.77234E3,1.345723E4,5.84141E-1,4.11676E3,6.5007645E-1,6.2424356E-1,3.60427E-1,4.5894427E2,4.3178E4,2.20499E3,1.158E1,1.39759E3,3.7837E4,8.9456E3,3.0944848E-1,2.33661E3,5.723358E2,8.0698914E2,3.143527E-1,1.44909E4,1.9839385E3,5.22576E3,-4.4714478E1,2.20499E3,4.3749E4,4.0004E4,2.594E3,2E0,4.9952987E-1,4.49273E3,1.345723E4,1.29242E4,2.594E3,1.455037E4,2.29499E3,-9.463684E1,1.80452E4,4.699646E2,2.6013716E1,-6.82923E0,1.5190089E0,-5.0855236E1,-1.1835986E1,-8.672363E-1,-7.9147E1,-2.1570648E1,-1.6404656E0,9.728352E0,-2.710325E1,-7.1096153E0,1.5169524E1,2.6429152E1,1.0739263E1,-3.095729E1,2.3039705E1,1.6725622E1,3.1591867E1,2.4631346E1,1.0193582E1,1.9637985E1,7.279139E0,-1.333286E1,3.2105656E1,2.320188E1,3.6120846E1,2.6271921E1,-1.4357875E1,2.0127985E1,-1.3788279E1,-4.109608E1,-8.67702E1,-2.3495874E1,-9.0371185E1,-5.100051E1,-3.3555492E1,-5.420547E1,-1.6103193E1,-1.749219E-2,-2.235998E1,-7.645514E1,-1.2430665E1,-2.9471186E1,-2.9503174E1,-5.0439247E1,-5.0046455E1,-8.700078E1,-1.49741335E1,-9.899368E1,-5.4568226E1,-2.0661436E1,-8.305094E1,-5.153066E1,-6.583262E1,-3.695501E1,-1.9459654E1,-3.9204613E1,-4.5168713E1,-6.732082E1],"split_indices":[21,11,21,19,11,19,11,5,13,21,4,19,4,20,15,21,21,21,21,13,5,13,21,2,11,2,5,21,2,21,21,21,16,0,11,3,12,0,2,21,2,16,16,21,4,19,2,0,11,0,0,13,8,21,2,5,4,13,5,13,0,4,16,0,0,0,0,0,0,0,0,0,0,0,0,0,0,0,0,0,0,0,0,0,0,0,0,0,0,0,0,0,0,0,0,0,0,0,0,0,0,0,0,0,0,0,0,0,0,0,0,0,0,0,0,0,0,0,0,0,0,0,0],"split_type":[0,0,0,0,0,0,0,0,0,0,0,0,0,0,0,0,0,0,0,0,0,0,0,0,0,0,0,0,0,0,0,0,0,0,0,0,0,0,0,0,0,0,0,0,0,0,0,0,0,0,0,0,0,0,0,0,0,0,0,0,0,0,0,0,0,0,0,0,0,0,0,0,0,0,0,0,0,0,0,0,0,0,0,0,0,0,0,0,0,0,0,0,0,0,0,0,0,0,0,0,0,0,0,0,0,0,0,0,0,0,0,0,0,0,0,0,0,0,0,0,0,0,0],"sum_hessian":[6.862E3,5.022E3,1.84E3,2.31E3,2.712E3,1.185E3,6.55E2,1.06E2,2.204E3,1.207E3,1.505E3,2.62E2,9.23E2,3.73E2,2.82E2,7.2E1,3.4E1,1.857E3,3.47E2,8.75E2,3.32E2,1.457E3,4.8E1,7.2E1,1.9E2,6.85E2,2.38E2,2.02E2,1.71E2,1.05E2,1.77E2,2.5E1,4.7E1,2E0,3.2E1,1.298E3,5.59E2,2.9E2,5.7E1,5.24E2,3.51E2,1.95E2,1.37E2,5.25E2,9.32E2,4E1,8E0,8E0,6.4E1,2.7E1,1.63E2,6.29E2,5.6E1,7.4E1,1.64E2,6.7E1,1.35E2,5.1E1,1.2E2,8.1E1,2.4E1,1.33E2,4.4E1,1.2E1,1.3E1,9E0,3.8E1,1E0,1E0,3.1E1,1E0,5.42E2,7.56E2,5.6E1,5.03E2,6.3E1,2.27E2,5E1,7E0,2.12E2,3.12E2,7.2E1,2.79E2,1.24E2,7.1E1,1E2,3.7E1,2.67E2,2.58E2,8.88E2,4.4E1,1E1,3E1,4E0,4E0,6.3E1,1E0,1.6E1,1.1E1,1E2,6.3E1,3.54E2,2.75E2,4.1E1,1.5E1,3.9E1,3.5E1,4.5E1,1.19E2,1.2E1,5.5E1,1E0,1.34E2,4.1E1,1E1,9.7E1,2.3E1,6.3E1,1.8E1,9E1,4.3E1,3.3E1,1.1E1],"tree_param":{"num_deleted":"0","num_feature":"24","num_nodes":"123","size_leaf_vector":"1"}},{"base_weights":[3.9750397E0,2.3288214E2,-9.6418677E2,-3.382429E1,4.6134644E2,-1.3486149E3,-6.2499713E2,-8.9021875E2,1.0340817E1,5.671201E2,2.3237128E2,-1.1124698E3,-1.6511E3,-1.0670232E3,-4.19258E2,-5.670512E2,-1.4399221E3,1.6212523E2,-1.847189E2,4.1376157E2,6.3980286E2,3.1349283E2,2.2899372E1,-1.5707451E3,-9.44742E2,-1.709298E3,-9.8820056E2,-9.3065485E2,-1.5060101E3,-3.3090805E2,-1.00957043E3,4.3208795E2,-8.006751E2,-1.8057356E2,-1.5555607E3,4.089904E1,3.0924866E2,-1.0409442E2,-3.733572E2,3.656993E2,4.9251993E2,5.1087064E2,6.633693E2,2.1040372E2,4.4791235E2,-1.03844505E2,2.0640977E2,-1.2882885E3,-1.8028243E3,-6.1668365E2,-1.1023622E3,-1.5586782E3,-1.877085E3,-4.43314E2,-1.34574E3,-7.283045E2,-1.0690641E3,-9.032046E1,-1.2158312E3,-2.6981024E2,-7.569289E2,-1.3970736E3,-7.452205E2,2.749882E1,-1.31043625E1,-4.4734158E1,-5.2940683E0,-1.4963597E1,-8.420003E-2,-8.181815E1,-4.5889126E1,-2.8410435E0,8.049127E0,1.1383746E1,2.4585215E1,-9.634787E0,8.799542E0,-4.2848755E1,-1.47594595E1,1.8506905E1,-1.8363558E1,2.939276E1,2.2265997E1,-1.9549887E1,2.604923E1,2.9461401E1,3.4214996E1,3.426859E0,1.3164942E1,1.3908447E0,2.4243866E1,9.466311E0,-1.0581233E1,1.4997426E1,-8.856376E0,-1.4383399E1,-6.764561E1,-3.4297222E1,-9.310199E1,-2.1549116E1,-4.744801E1,-5.8215553E1,-2.992634E1,-5.4943398E1,-8.216461E1,-9.4592026E1,-3.5763603E1,-5.4770846E0,-2.7739294E1,-4.1467026E1,-7.702398E1,-1.9371138E1,-4.2053493E1,-4.7482677E1,-6.8619995E1,-2.4376385E1,-6.405576E1,-8.051785E0,-2.2709135E1,-2.3511036E1,-4.9294262E1,-7.62836E1,-3.0163244E1,-1.2143602E1,-4.4391468E1],"categories":[],"categories_nodes":[],"categories_segments":[],"categories_sizes":[],"default_left":[0,0,0,0,0,0,0,0,0,0,0,0,0,0,0,0,0,0,0,0,0,0,0,0,0,0,0,0,0,0,0,0,0,0,0,0,0,0,0,0,0,0,0,0,0,0,0,0,0,0,0,0,0,0,0,0,0,0,0,0,0,0,0,0,0,0,0,0,0,0,0,0,0,0,0,0,0,0,0,0,0,0,0,0,0,0,0,0,0,0,0,0,0,0,0,0,0,0,0,0,0,0,0,0,0,0,0,0,0,0,0,0,0,0,0,0,0,0,0,0,0,0,0,0,0],"id":4,"left_children":[1,3,5,7,9,11,13,15,17,19,21,23,25,27,29,31,33,35,37,39,41,43,45,47,49,51,53,55,57,59,61,63,65,67,69,71,73,75,77,79,81,83,85,87,89,91,93,95,97,99,101,103,105,107,109,111,113,-1,115,117,119,121,123,-1,-1,-1,-1,-1,-1,-1,-1,-1,-1,-1,-1,-1,-1,-1,-1,-1,-1,-1,-1,-1,-1,-1,-1,-1,-1,-1,-1,-1,-1,-1,-1,-1,-1,-1,-1,-1,-1,-1,-1,-1,-1,-1,-1,-1,-1,-1,-1,-1,-1,-1,-1,-1,-1,-1,-1,-1,-1,-1,-1,-1,-1],"loss_changes":[1.5251858E9,3.391681E8,1.7075571E8,9.7175864E7,7.24784E7,4.216435E7,6.330304E7,2.156692E7,7.238951E7,2.2585664E7,1.6118888E7,2.5342112E7,8.65024E6,1.1888208E7,2.4699872E7,1.9253208E7,6.418048E6,2.4510768E7,1.623462E7,2.325752E6,3.881536E6,9.384064E6,6.20828E6,3.708256E6,1.2661024E7,3.265856E6,4.079056E6,4.038624E6,2.249352E6,1.07019E7,5.309924E6,1.4535045E6,4.216136E6,1.05665516E5,6.62608E5,8.868731E6,9.130756E6,1.8670666E7,1.184414E7,1.48614E6,8.54176E5,2.201304E6,1.413984E6,2.90103E6,4.583044E6,5.0325485E6,3.963569E6,2.520672E6,1.897296E6,4.897574E6,4.7028E6,3.446624E6,5.49696E5,3.484965E5,1.30306E5,2.480248E6,2.318848E6,0E0,7.54272E5,7.30711E6,2.949888E6,1.5296E6,2.578304E6,0E0,0E0,0E0,0E0,0E0,0E0,0E0,0E0,0E0,0E0,0E0,0E0,0E0,0E0,0E0,0E0,0E0,0E0,0E0,0E0,0E0,0E0,0E0,0E0,0E0,0E0,0E0,0E0,0E0,0E0,0E0,0E0,0E0,0E0,0E0,0E0,0E0,0E0,0E0,0E0,0E0,0E0,0E0,0E0,0E0,0E0,0E0,0E0,0E0,0E0,0E0,0E0,0E0,0E0,0E0,0E0,0E0,0E0,0E0,0E0,0E0,0E0],"parents":[2147483647,0,0,1,1,2,2,3,3,4,4,5,5,6,6,7,7,8,8,9,9,10,10,11,11,12,12,13,13,14,14,15,15,16,16,17,17,18,18,19,19,20,20,21,21,22,22,23,23,24,24,25,25,26,26,27,27,28,28,29,29,30,30,31,31,32,32,33,33,34,34,35,35,36,36,37,37,38,38,39,39,40,40,41,41,42,42,43,43,44,44,45,45,46,46,47,47,48,48,49,49,50,50,51,51,52,52,53,53,54,54,55,55,56,56,58,58,59,59,60,60,61,61,62,62],"right_children":[2,4,6,8,10,12,14,16,18,20,22,24,26,28,30,32,34,36,38,40,42,44,46,48,50,52,54,56,58,60,62,64,66,68,70,72,74,76,78,80,82,84,86,88,90,92,94,96,98,100,102,104,106,108,110,112,114,-1,116,118,120,122,124,-1,-1,-1,-1,-1,-1,-1,-1,-1,-1,-1,-1,-1,-1,-1,-1,-1,-1,-1,-1,-1,-1,-1,-1,-1,-1,-1,-1,-1,-1,-1,-1,-1,-1,-1,-1,-1,-1,-1,-1,-1,-1,-1,-1,-1,-1,-1,-1,-1,-1,-1,-1,-1,-1,-1,-1,-1,-1,-1,-1,-1,-1],"split_conditions":[4.7387245E-1,2.88E3,1.2655754E-1,1.4696278E3,3.47401E-1,5.583731E-1,1.73998E3,1.465118E4,3.9422327E-1,3.19099E3,4.1203704E-1,1.3545183E3,1.2248861E0,2.06756E4,1.95476E4,3.7020263E-1,-1.27499E3,2.75225E3,6.66852E3,3.005E3,3E3,3.145E3,2.99801E3,4E0,1.4263E4,6.2424356E-1,7.023172E-1,1.75404E4,2.8264E3,5.84141E-1,2.6032603E3,1.54212E4,3.13E3,1.27793E4,1.1655108E-1,1.390514E4,3.15E3,2.77499E3,1.9536641E3,1.489729E4,2.800874E-1,1.232595E3,3.39919E3,2.501E3,1.9839385E3,1.264052E4,3.951518E4,1.0116755E0,3E0,1.95476E4,1.0925709E0,4.11676E3,2.99801E3,2.00732E3,4.6703473E2,1.393632E4,9E0,-9.032046E1,3.3010828E2,9E0,5.8337E3,1.1937577E0,5.0149095E-1,2.749882E1,-1.31043625E1,-4.4734158E1,-5.2940683E0,-1.4963597E1,-8.420003E-2,-8.181815E1,-4.5889126E1,-2.8410435E0,8.049127E0,1.1383746E1,2.4585215E1,-9.634787E0,8.799542E0,-4.2848755E1,-1.47594595E1,1.8506905E1,-1.8363558E1,2.939276E1,2.2265997E1,-1.9549887E1,2.604923E1,2.9461401E1,3.4214996E1,3.426859E0,1.3164942E1,1.3908447E0,2.4243866E1,9.466311E0,-1.0581233E1,1.4997426E1,-8.856376E0,-1.4383399E1,-6.764561E1,-3.4297222E1,-9.310199E1,-2.1549116E1,-4.744801E1,-5.8215553E1,-2.992634E1,-5.4943398E1,-8.216461E1,-9.4592026E1,-3.5763603E1,-5.4770846E0,-2.7739294E1,-4.1467026E1,-7.702398E1,-1.9371138E1,-4.2053493E1,-4.7482677E1,-6.8619995E1,-2.4376385E1,-6.405576E1,-8.051785E0,-2.2709135E1,-2.3511036E1,-4.9294262E1,-7.62836E1,-3.0163244E1,-1.2143602E1,-4.4391468E1],"split_indices":[21,11,23,19,21,21,13,5,21,11,21,18,20,4,4,21,17,13,2,13,13,11,13,7,5,21,21,4,14,21,19,4,13,4,23,5,13,13,19,5,21,19,14,13,19,5,1,20,8,4,20,2,13,2,16,5,8,0,16,6,2,20,21,0,0,0,0,0,0,0,0,0,0,0,0,0,0,0,0,0,0,0,0,0,0,0,0,0,0,0,0,0,0,0,0,0,0,0,0,0,0,0,0,0,0,0,0,0,0,0,0,0,0,0,0,0,0,0,0,0,0,0,0,0,0],"split_type":[0,0,0,0,0,0,0,0,0,0,0,0,0,0,0,0,0,0,0,0,0,0,0,0,0,0,0,0,0,0,0,0,0,0,0,0,0,0,0,0,0,0,0,0,0,0,0,0,0,0,0,0,0,0,0,0,0,0,0,0,0,0,0,0,0,0,0,0,0,0,0,0,0,0,0,0,0,0,0,0,0,0,0,0,0,0,0,0,0,0,0,0,0,0,0,0,0,0,0,0,0,0,0,0,0,0,0,0,0,0,0,0,0,0,0,0,0,0,0,0,0,0,0,0,0],"sum_hessian":[6.88E3,5.565E3,1.315E3,2.568E3,2.997E3,6.15E2,7E2,1.25E2,2.443E3,2.049E3,9.48E2,3.48E2,2.67E2,2.21E2,4.79E2,8E1,4.5E1,1.374E3,1.069E3,6.61E2,1.388E3,6.83E2,2.65E2,9.1E1,2.57E2,2.44E2,2.3E1,1.71E2,5E1,4.18E2,6.1E1,1.5E1,6.5E1,4E0,4.1E1,7.54E2,6.2E2,7.5E2,3.19E2,4.14E2,2.47E2,2.18E2,1.17E3,3.88E2,2.95E2,1.57E2,1.08E2,4.4E1,4.7E1,8.5E1,1.72E2,1.34E2,1.1E2,1E1,1.3E1,7.2E1,9.9E1,2.2E1,2.8E1,3.67E2,5.1E1,2.3E1,3.8E1,1.3E1,2E0,5.7E1,8E0,2E0,2E0,3.5E1,6E0,4.16E2,3.38E2,4.3E2,1.9E2,5.7E2,1.8E2,4.3E1,2.76E2,4.12E2,2E0,7.8E1,1.69E2,2E0,2.16E2,2.64E2,9.06E2,1.06E2,2.82E2,2.4E1,2.71E2,4.2E1,1.15E2,8.7E1,2.1E1,3E0,4.1E1,3E0,4.4E1,5.6E1,2.9E1,1.52E2,2E1,2.3E1,1.11E2,1.08E2,2E0,3E0,7E0,5E0,8E0,1.9E1,5.3E1,7.4E1,2.5E1,3E0,2.5E1,2.32E2,1.35E2,2.4E1,2.7E1,1.9E1,4E0,9E0,2.9E1],"tree_param":{"num_deleted":"0","num_feature":"24","num_nodes":"125","size_leaf_vector":"1"}},{"base_weights":[-7.411235E0,2.5718747E2,-6.188401E2,3.4823296E1,4.6855438E2,-3.905867E2,-1.1289683E3,-8.4342664E2,7.588406E1,3.4842142E2,5.769334E2,-8.196202E2,-1.6338515E2,-1.2648745E3,-1.2656077E2,-1.4405189E3,-3.8912204E2,-8.046033E1,2.2831154E2,-8.623165E2,3.543376E2,-1.100077E2,5.9052106E2,-1.3105281E3,-6.068893E2,-8.410495E2,-1.0223035E2,-1.0767471E3,-1.5893273E3,-4.0619983E2,1.22801285E2,-1.5001362E3,-2.2720366E1,-8.727075E1,-1.3962463E3,2.9689539E1,-2.757752E2,3.1753555E2,4.1749035E1,-1.11659975E1,-4.7272594E1,3.1250284E2,4.89847E2,2.821426E2,-5.9102826E2,5.9540356E2,-5.389116E2,-1.7134207E3,-1.0660527E3,-5.1128394E2,-1.227601E3,-4.4306552E2,-1.154686E3,-3.0120575E2,7.204021E1,-9.6473975E2,-1.4722002E3,-1.4380413E3,-1.7877692E3,1.4660359E2,-5.637526E2,-2.0798544E1,1.6013916E2,-4.9050953E1,-8.263467E1,1.705767E1,-2.1656242E1,-7.21234E1,-1.9884155E1,-5.3960676E0,8.577025E0,-5.0790386E1,-1.1186544E1,1.3184998E1,2.5213028E1,-2.1579266E0,1.4709842E1,1.7687819E1,8.886664E0,2.5519794E1,1.9013608E0,-1.3836487E1,2.946259E1,-3.7509365E1,6.8255615E0,3.0688192E1,1.8121717E1,-3.4731037E1,-7.583112E0,-9.12179E1,-4.718505E1,-4.2807434E1,-7.3927826E1,-4.6441006E1,-2.2419031E1,-6.782293E1,-2.7356771E1,2.4486797E0,-4.195727E1,-6.955292E1,-1.702989E1,-3.5951474E0,-2.5689371E1,-1.359339E1,7.01401E0,-1.2054381E1,-5.0487175E1,-8.3703705E1,-4.583362E1,-9.415511E1,-6.57811E1,-2.0675074E1,-8.996034E1,1.1328573E1,-4.442798E0,-5.282654E0,-3.3933163E1,1.0773157E1,-2.7180786E0],"categories":[],"categories_nodes":[],"categories_segments":[],"categories_sizes":[],"default_left":[0,0,0,0,0,0,0,0,0,0,0,0,0,0,0,0,0,0,0,0,0,0,0,0,0,0,0,0,0,0,0,0,0,0,0,0,0,0,0,0,0,0,0,0,0,0,0,0,0,0,0,0,0,0,0,0,0,0,0,0,0,0,0,0,0,0,0,0,0,0,0,0,0,0,0,0,0,0,0,0,0,0,0,0,0,0,0,0,0,0,0,0,0,0,0,0,0,0,0,0,0,0,0,0,0,0,0,0,0,0,0,0,0,0,0,0,0,0,0],"id":5,"left_children":[1,3,5,7,9,11,13,15,17,19,21,23,25,27,29,31,33,35,37,39,41,43,45,47,49,51,53,55,57,59,61,63,-1,65,67,69,71,73,75,-1,-1,77,79,81,83,85,87,89,91,93,95,97,99,101,103,105,107,109,111,113,115,-1,117,-1,-1,-1,-1,-1,-1,-1,-1,-1,-1,-1,-1,-1,-1,-1,-1,-1,-1,-1,-1,-1,-1,-1,-1,-1,-1,-1,-1,-1,-1,-1,-1,-1,-1,-1,-1,-1,-1,-1,-1,-1,-1,-1,-1,-1,-1,-1,-1,-1,-1,-1,-1,-1,-1,-1,-1],"loss_changes":[1.1167875E9,2.2643171E8,2.4233325E8,8.477274E7,3.1958144E7,1.40428E8,8.757427E7,2.7921952E7,5.3519372E7,8.714832E6,1.2171136E7,5.131587E7,3.9035668E7,3.2897472E7,5.4889285E6,1.963848E6,1.8422256E7,2.386711E7,1.8913084E7,1.07601E5,6.473984E6,5.071196E6,7.335168E6,1.2948E7,2.0142536E7,9.22454E6,3.00854E7,1.4614048E7,3.613536E6,3.305191E6,9.1151075E5,1.704864E6,0E0,7.26003E6,7.2528E4,1.3877883E7,1.5178528E7,7.59736E6,7.9221115E6,0E0,0E0,4.91864E6,2.524516E6,2.7375858E6,1.491943E6,5.197024E6,2.5644175E5,2.974848E6,7.046408E6,7.594184E6,3.291256E6,7.057021E6,7.800612E6,1.9705012E7,1.090395E7,9.038128E6,7.212848E6,4.1696E6,5.92064E5,1.8959503E5,1.454871E6,0E0,4.8639438E5,0E0,0E0,0E0,0E0,0E0,0E0,0E0,0E0,0E0,0E0,0E0,0E0,0E0,0E0,0E0,0E0,0E0,0E0,0E0,0E0,0E0,0E0,0E0,0E0,0E0,0E0,0E0,0E0,0E0,0E0,0E0,0E0,0E0,0E0,0E0,0E0,0E0,0E0,0E0,0E0,0E0,0E0,0E0,0E0,0E0,0E0,0E0,0E0,0E0,0E0,0E0,0E0,0E0,0E0,0E0,0E0],"parents":[2147483647,0,0,1,1,2,2,3,3,4,4,5,5,6,6,7,7,8,8,9,9,10,10,11,11,12,12,13,13,14,14,15,15,16,16,17,17,18,18,19,19,20,20,21,21,22,22,23,23,24,24,25,25,26,26,27,27,28,28,29,29,30,30,31,31,33,33,34,34,35,35,36,36,37,37,38,38,41,41,42,42,43,43,44,44,45,45,46,46,47,47,48,48,49,49,50,50,51,51,52,52,53,53,54,54,55,55,56,56,57,57,58,58,59,59,60,60,62,62],"right_children":[2,4,6,8,10,12,14,16,18,20,22,24,26,28,30,32,34,36,38,40,42,44,46,48,50,52,54,56,58,60,62,64,-1,66,68,70,72,74,76,-1,-1,78,80,82,84,86,88,90,92,94,96,98,100,102,104,106,108,110,112,114,116,-1,118,-1,-1,-1,-1,-1,-1,-1,-1,-1,-1,-1,-1,-1,-1,-1,-1,-1,-1,-1,-1,-1,-1,-1,-1,-1,-1,-1,-1,-1,-1,-1,-1,-1,-1,-1,-1,-1,-1,-1,-1,-1,-1,-1,-1,-1,-1,-1,-1,-1,-1,-1,-1,-1,-1,-1,-1],"split_conditions":[1.56581E4,2.919E3,1.92112E4,1.6226626E3,3.299E3,3.498493E4,4.548057E4,3.250339E4,3.401697E4,1.2612703E3,2.880587E4,1.9798158E3,1.6438856E3,2.1469E4,4.859708E4,1.23759E3,1.465118E4,4.64862E3,1.9E1,1.27456E4,9.993E1,1.08592E4,1.500448E4,7.658624E2,8.20975E3,2E0,4.018383E4,6E0,2.33168E4,7.20749E3,2.6528245E3,3.12812E3,-2.2720366E1,3.06906E3,1.64405E3,2.5278652E3,1.9432903E3,3.398E3,4E0,-1.11659975E1,-4.7272594E1,1.3895E4,1.50146E4,2.877E1,1.1159174E0,1.44909E4,4.257311E4,1.443153E4,1.7191E4,2.767876E4,3.417395E4,9.7410535E2,1.95631E3,1.68631E4,2.0876707E3,2E0,2.9297004E3,3.320195E4,7.999E1,-1.100702E4,1.97594E4,-2.0798544E1,2.10808E4,-4.9050953E1,-8.263467E1,1.705767E1,-2.1656242E1,-7.21234E1,-1.9884155E1,-5.3960676E0,8.577025E0,-5.0790386E1,-1.1186544E1,1.3184998E1,2.5213028E1,-2.1579266E0,1.4709842E1,1.7687819E1,8.886664E0,2.5519794E1,1.9013608E0,-1.3836487E1,2.946259E1,-3.7509365E1,6.8255615E0,3.0688192E1,1.8121717E1,-3.4731037E1,-7.583112E0,-9.12179E1,-4.718505E1,-4.2807434E1,-7.3927826E1,-4.6441006E1,-2.2419031E1,-6.782293E1,-2.7356771E1,2.4486797E0,-4.195727E1,-6.955292E1,-1.702989E1,-3.5951474E0,-2.5689371E1,-1.359339E1,7.01401E0,-1.2054381E1,-5.0487175E1,-8.3703705E1,-4.583362E1,-9.415511E1,-6.57811E1,-2.0675074E1,-8.996034E1,1.1328573E1,-4.442798E0,-5.282654E0,-3.3933163E1,1.0773157E1,-2.7180786E0],"split_indices":[4,12,4,19,12,1,1,1,1,19,1,18,19,4,1,12,22,2,6,4,17,4,22,16,3,7,1,7,4,2,19,2,0,2,15,19,19,14,8,0,0,4,4,3,20,4,1,5,4,1,1,16,12,4,19,8,18,1,12,15,4,0,4,0,0,0,0,0,0,0,0,0,0,0,0,0,0,0,0,0,0,0,0,0,0,0,0,0,0,0,0,0,0,0,0,0,0,0,0,0,0,0,0,0,0,0,0,0,0,0,0,0,0,0,0,0,0,0,0],"split_type":[0,0,0,0,0,0,0,0,0,0,0,0,0,0,0,0,0,0,0,0,0,0,0,0,0,0,0,0,0,0,0,0,0,0,0,0,0,0,0,0,0,0,0,0,0,0,0,0,0,0,0,0,0,0,0,0,0,0,0,0,0,0,0,0,0,0,0,0,0,0,0,0,0,0,0,0,0,0,0,0,0,0,0,0,0,0,0,0,0,0,0,0,0,0,0,0,0,0,0,0,0,0,0,0,0,0,0,0,0,0,0,0,0,0,0,0,0,0,0],"sum_hessian":[6.901E3,4.817E3,2.084E3,2.348E3,2.469E3,1.441E3,6.43E2,1.04E2,2.244E3,1.173E3,1.296E3,4.98E2,9.43E2,5.66E2,7.7E1,4.4E1,6E1,1.108E3,1.136E3,5E0,1.168E3,2.5E1,1.271E3,1.49E2,3.49E2,7.7E1,8.66E2,3.61E2,2.05E2,3.6E1,4.1E1,4.1E1,3E0,4.7E1,1.3E1,7.09E2,3.99E2,7.68E2,3.68E2,1E0,4E0,8.95E2,2.73E2,1.4E1,1.1E1,1.266E3,5E0,5.4E1,9.5E1,3.04E2,4.5E1,3.5E1,4.2E1,4.04E2,4.62E2,2.84E2,7.7E1,1.21E2,8.4E1,8E0,2.8E1,2E0,3.9E1,1.1E1,3E1,2.1E1,2.6E1,1.2E1,1E0,3.6E2,3.49E2,2.5E1,3.74E2,5.98E2,1.7E2,2.76E2,9.2E1,6.84E2,2.11E2,2.61E2,1.2E1,5E0,9E0,9E0,2E0,1.172E3,9.4E1,3E0,2E0,4.6E1,8E0,6.5E1,3E1,3.8E1,2.66E2,3.7E1,8E0,1.6E1,1.9E1,3.2E1,1E1,1.95E2,2.09E2,7.6E1,3.86E2,1.7E1,2.67E2,5.5E1,2.2E1,2.3E1,9.8E1,1E0,8.3E1,6E0,2E0,6E0,2.2E1,3.1E1,8E0],"tree_param":{"num_deleted":"0","num_feature":"24","num_nodes":"119","size_leaf_vector":"1"}},{"base_weights":[-7.8662467E0,2.4650285E2,-7.407042E2,1.1773988E1,4.4722983E2,-1.1466627E3,-4.5125244E2,-7.426311E2,4.7821136E1,3.291898E2,5.666759E2,-7.963204E2,-1.4066892E3,-2.4367047E2,-8.053002E2,-4.32071E2,-1.3184996E3,1.4234448E2,-1.6863953E2,4.0137573E2,1.9198212E2,5.8262225E2,1.7742912E2,-1.304124E3,-6.236925E2,-1.6186755E3,-1.1561606E3,-4.1801688E2,-8.922183E1,-1.3988214E3,-6.8555994E2,3.076949E2,-7.2820856E2,-1.4090939E3,-2.1882364E2,8.984556E1,4.6487296E2,-1.0235222E3,-1.5047037E2,3.2149902E2,4.69111E2,2.544777E2,-5.2410164E0,4.9347308E2,6.233997E2,-2.5491568E2,3.4593134E2,-6.7567236E2,-1.365419E3,-1.3940312E3,-5.6536316E2,-1.3609602E3,-1.6845315E3,-1.3695212E3,-9.3763934E2,-1.6251334E2,-5.3761707E2,-2.395695E2,3.9208214E1,-1.0720858E3,-1.7015134E3,-5.3924756E2,-9.7862286E2,2.8288925E1,-1.6387476E0,-9.733979E0,-4.5280422E1,-7.221864E1,-2.8154346E1,-1.4152326E1,-6.5387577E-1,3.0993888E-1,8.443836E0,1.1855009E1,2.528364E1,-6.1877796E1,-8.95246E0,-4.0939145E0,-1.6798811E1,1.6245214E1,-2.7462202E1,2.3664808E1,-1.8192993E1,1.13640785E1,2.4759796E1,-1.9709864E1,2.8213851E0,2.5617838E1,1.5678459E1,2.2236654E1,3.1412235E1,2.87943E0,-3.3246693E1,1.0746444E1,3.0074018E1,-1.4636866E1,-4.6173653E1,-7.051855E1,-4.1756252E1,-1.5085071E1,-7.233699E1,-9.491258E0,-3.272579E1,-5.2147785E1,-8.133101E1,-8.973797E1,-7.186964E1,-7.042385E1,-4.1606125E1,-5.2847088E1,-2.6872725E1,-1.7872097E1,-1.2150007E0,-3.165727E1,-1.8514297E1,-6.077741E0,-2.0509123E1,4.1596704E0,-1.1902656E1,-5.5993134E1,1.1419349E1,-8.73468E1,-3.476289E1,-1.6450127E1,-3.6483017E1,-6.2786476E1,-3.907403E1],"categories":[],"categories_nodes":[],"categories_segments":[],"categories_sizes":[],"default_left":[0,0,0,0,0,0,0,0,0,0,0,0,0,0,0,0,0,0,0,0,0,0,0,0,0,0,0,0,0,0,0,0,0,0,0,0,0,0,0,0,0,0,0,0,0,0,0,0,0,0,0,0,0,0,0,0,0,0,0,0,0,0,0,0,0,0,0,0,0,0,0,0,0,0,0,0,0,0,0,0,0,0,0,0,0,0,0,0,0,0,0,0,0,0,0,0,0,0,0,0,0,0,0,0,0,0,0,0,0,0,0,0,0,0,0,0,0,0,0,0,0,0,0,0,0,0,0],"id":6,"left_children":[1,3,5,7,9,11,13,15,17,19,21,23,25,27,29,31,33,35,37,39,41,43,45,47,49,51,53,55,57,59,61,63,65,67,69,71,73,75,77,79,81,83,85,87,89,91,93,95,97,99,101,103,105,107,109,111,113,115,117,119,121,123,125,-1,-1,-1,-1,-1,-1,-1,-1,-1,-1,-1,-1,-1,-1,-1,-1,-1,-1,-1,-1,-1,-1,-1,-1,-1,-1,-1,-1,-1,-1,-1,-1,-1,-1,-1,-1,-1,-1,-1,-1,-1,-1,-1,-1,-1,-1,-1,-1,-1,-1,-1,-1,-1,-1,-1,-1,-1,-1,-1,-1,-1,-1,-1,-1],"loss_changes":[1.2769138E9,2.3958176E8,2.0687955E8,6.38058E7,3.8459904E7,6.5745984E7,7.564952E7,1.8566384E7,4.5835256E7,1.3601024E7,8.344448E6,2.6799856E7,2.0434176E7,1.7519476E7,2.6118064E7,1.5778207E7,3.377756E6,2.6355844E7,1.0423622E7,4.74024E6,5.89296E6,4.44368E6,4.0949908E6,2.12056E6,9.861072E6,1.526208E6,7.854176E6,9.26346E6,6.70967E6,4.406544E6,1.3150592E7,1.863807E6,4.650746E6,2.01464E5,4.915289E4,8.870516E6,1.905996E6,2.308855E6,8.472277E6,1.417864E6,1.869952E6,2.26387E6,2.80467E6,1.2492E6,4.936E5,2.0884116E6,1.209827E6,5.8368875E5,5.14656E5,4.84718E5,7.30836E6,2.612032E6,2.187488E6,8.58656E5,4.206248E6,2.6585452E6,3.090412E6,3.171713E6,2.3125385E6,2.306132E6,2.02336E5,8.367112E6,4.754768E6,0E0,0E0,0E0,0E0,0E0,0E0,0E0,0E0,0E0,0E0,0E0,0E0,0E0,0E0,0E0,0E0,0E0,0E0,0E0,0E0,0E0,0E0,0E0,0E0,0E0,0E0,0E0,0E0,0E0,0E0,0E0,0E0,0E0,0E0,0E0,0E0,0E0,0E0,0E0,0E0,0E0,0E0,0E0,0E0,0E0,0E0,0E0,0E0,0E0,0E0,0E0,0E0,0E0,0E0,0E0,0E0,0E0,0E0,0E0,0E0,0E0,0E0,0E0,0E0],"parents":[2147483647,0,0,1,1,2,2,3,3,4,4,5,5,6,6,7,7,8,8,9,9,10,10,11,11,12,12,13,13,14,14,15,15,16,16,17,17,18,18,19,19,20,20,21,21,22,22,23,23,24,24,25,25,26,26,27,27,28,28,29,29,30,30,31,31,32,32,33,33,34,34,35,35,36,36,37,37,38,38,39,39,40,40,41,41,42,42,43,43,44,44,45,45,46,46,47,47,48,48,49,49,50,50,51,51,52,52,53,53,54,54,55,55,56,56,57,57,58,58,59,59,60,60,61,61,62,62],"right_children":[2,4,6,8,10,12,14,16,18,20,22,24,26,28,30,32,34,36,38,40,42,44,46,48,50,52,54,56,58,60,62,64,66,68,70,72,74,76,78,80,82,84,86,88,90,92,94,96,98,100,102,104,106,108,110,112,114,116,118,120,122,124,126,-1,-1,-1,-1,-1,-1,-1,-1,-1,-1,-1,-1,-1,-1,-1,-1,-1,-1,-1,-1,-1,-1,-1,-1,-1,-1,-1,-1,-1,-1,-1,-1,-1,-1,-1,-1,-1,-1,-1,-1,-1,-1,-1,-1,-1,-1,-1,-1,-1,-1,-1,-1,-1,-1,-1,-1,-1,-1,-1,-1,-1,-1,-1,-1],"split_conditions":[4.4550046E-1,2.90001E3,1.2655754E-1,1.3604325E3,3.19999E3,5.194871E-1,1.77692E4,1.465118E4,4.0073615E-1,3.5756412E-1,1.55613E4,1.6438856E3,1.0577238E0,2.35695E3,3.4164E4,3.7399098E-1,3.10594E3,3.15E3,9.510662E2,3.10001E3,1.60612E4,3.35999E3,3.07401E3,1E0,1.2120337E3,1.288271E4,1.74997E3,1.49463E4,2.63601E3,1.96443E4,1.438206E4,3.543067E-1,8.4087085E2,4.406685E4,4.438E4,2.5101E3,3.7144E4,1.693E3,1.440628E4,1.500448E4,1.500448E4,2.4784882E-1,1.9289092E3,3.8771605E-1,3.5859E4,2.99501E3,1.0893128E0,1.4263E4,1.101211E0,1.241722E4,6E0,6.69162E-1,1.20001E3,2.04774E3,1.1937577E0,3E0,1.9247429E-1,1.60968E4,2.2E1,2.83033E3,2.9297004E3,5.221665E-1,1.5742E3,2.8288925E1,-1.6387476E0,-9.733979E0,-4.5280422E1,-7.221864E1,-2.8154346E1,-1.4152326E1,-6.5387577E-1,3.0993888E-1,8.443836E0,1.1855009E1,2.528364E1,-6.1877796E1,-8.95246E0,-4.0939145E0,-1.6798811E1,1.6245214E1,-2.7462202E1,2.3664808E1,-1.8192993E1,1.13640785E1,2.4759796E1,-1.9709864E1,2.8213851E0,2.5617838E1,1.5678459E1,2.2236654E1,3.1412235E1,2.87943E0,-3.3246693E1,1.0746444E1,3.0074018E1,-1.4636866E1,-4.6173653E1,-7.051855E1,-4.1756252E1,-1.5085071E1,-7.233699E1,-9.491258E0,-3.272579E1,-5.2147785E1,-8.133101E1,-8.973797E1,-7.186964E1,-7.042385E1,-4.1606125E1,-5.2847088E1,-2.6872725E1,-1.7872097E1,-1.2150007E0,-3.165727E1,-1.8514297E1,-6.077741E0,-2.0509123E1,4.1596704E0,-1.1902656E1,-5.5993134E1,1.1419349E1,-8.73468E1,-3.476289E1,-1.6450127E1,-3.6483017E1,-6.2786476E1,-3.907403E1],"split_indices":[21,11,23,19,13,21,4,22,21,21,4,19,20,13,0,21,13,13,18,11,4,11,11,7,18,22,13,4,11,4,22,21,18,1,0,12,0,12,22,5,22,23,19,21,0,11,20,5,20,5,6,21,11,14,20,7,23,4,6,13,18,21,13,0,0,0,0,0,0,0,0,0,0,0,0,0,0,0,0,0,0,0,0,0,0,0,0,0,0,0,0,0,0,0,0,0,0,0,0,0,0,0,0,0,0,0,0,0,0,0,0,0,0,0,0,0,0,0,0,0,0,0,0,0,0,0,0],"split_type":[0,0,0,0,0,0,0,0,0,0,0,0,0,0,0,0,0,0,0,0,0,0,0,0,0,0,0,0,0,0,0,0,0,0,0,0,0,0,0,0,0,0,0,0,0,0,0,0,0,0,0,0,0,0,0,0,0,0,0,0,0,0,0,0,0,0,0,0,0,0,0,0,0,0,0,0,0,0,0,0,0,0,0,0,0,0,0,0,0,0,0,0,0,0,0,0,0,0,0,0,0,0,0,0,0,0,0,0,0,0,0,0,0,0,0,0,0,0,0,0,0,0,0,0,0,0,0],"sum_hessian":[6.848E3,5.084E3,1.764E3,2.344E3,2.74E3,7.33E2,1.031E3,1.06E2,2.238E3,1.38E3,1.36E3,3.14E2,4.19E2,6.51E2,3.8E2,7E1,3.6E1,1.558E3,6.8E2,9.03E2,4.77E2,1.306E3,5.4E1,7.8E1,2.36E2,2.24E2,1.95E2,3.05E2,3.46E2,6.2E1,3.18E2,2E1,5E1,3.3E1,3E0,1.341E3,2.17E2,1.3E1,6.67E2,4.17E2,4.86E2,3.62E2,1.15E2,4.14E2,8.92E2,1.5E1,3.9E1,8E0,7E1,1.5E1,2.21E2,5E1,1.74E2,9.6E1,9.9E1,9.8E1,2.07E2,1.59E2,1.87E2,3.2E1,3E1,2.14E2,1.04E2,1.1E1,9E0,1.3E1,3.7E1,3.1E1,2E0,2E0,1E0,6.52E2,6.89E2,3.4E1,1.83E2,1E1,3E0,4.88E2,1.79E2,4.16E2,1E0,4.84E2,2E0,3.27E2,3.5E1,1.5E1,1E2,3.73E2,4.1E1,2.6E1,8.66E2,9E0,6E0,2.7E1,1.2E1,4E0,4E0,6.3E1,7E0,1E0,1.4E1,4.3E1,1.78E2,2.5E1,2.5E1,1.16E2,5.8E1,8.8E1,8E0,7.5E1,2.4E1,4E1,5.8E1,1.3E2,7.7E1,9.5E1,6.4E1,1.62E2,2.5E1,3.1E1,1E0,2.8E1,2E0,1.03E2,1.11E2,4.1E1,6.3E1],"tree_param":{"num_deleted":"0","num_feature":"24","num_nodes":"127","size_leaf_vector":"1"}},{"base_weights":[1.8747925E0,1.8377759E2,-7.1015717E2,-1.5736116E2,3.4464105E2,-1.224803E3,-5.30338E2,-8.430777E2,-8.864822E1,2.09423E2,5.201869E2,-1.436903E3,-8.2102026E2,-3.3039594E2,-9.751455E2,-1.0962631E3,-1.5067375E2,-1.7782538E2,2.1986852E2,2.6337482E2,-1.1842233E1,3.975583E2,5.644072E2,-1.2512357E3,-8.4731705E1,-1.3301375E3,-5.88699E2,-4.3856018E2,1.20073E2,-1.0602272E3,-6.2816978E0,-1.390739E3,-8.0312555E2,4.246858E2,-4.9461798E2,-1.341648E3,-1.5279478E2,1.4269281E2,4.8298154E2,2.0311584E2,3.890202E2,-3.6416287E2,1.0300936E2,4.093573E2,-3.7897543E2,5.7674194E2,4.1960086E2,-1.3868865E3,-8.865535E2,-1.4095167E3,-2.5422716E1,-8.356755E2,-4.2823654E2,-1.9628123E2,-5.636255E2,-2.6287692E2,1.8608862E2,-1.5533452E3,-9.8814874E2,2.5662738E2,-1.1113124E2,-4.649248E1,-7.739596E1,-1.1689567E1,-5.275575E1,-2.9067892E1,2.9879108E1,-3.5583515E1,2.1339004E0,-7.4814964E1,-5.8495865E0,-2.4028342E0,-1.5527934E1,1.2920347E0,1.2448165E1,2.5303778E1,-1.4307673E1,6.309764E0,1.3313079E1,-1.1717882E1,2.077693E1,-4.880423E1,-1.2785992E1,-8.482609E0,7.7129807E0,2.3639061E1,1.5028188E1,-2.6100468E1,1.19807005E1,2.0870203E1,2.9328766E1,1.6494703E1,2.957543E1,-7.697712E1,-4.773955E1,-5.4608253E1,-2.8157597E1,-4.175192E1,-7.744027E1,-2.4840664E1,-4.6041626E1,-2.5797287E1,1.3410187E0,3.6552542E-1,-1.5588043E1,-4.109826E1,-2.1276007E1,-3.007668E1,4.9838834E0,5.206199E0,1.6019125E1,-7.9134415E1,-1.3158463E1,-4.2267242E1,-6.012336E1,7.5385743E-1,1.4449035E1,-1.1120107E1,4.1787677E0],"categories":[],"categories_nodes":[],"categories_segments":[],"categories_sizes":[],"default_left":[0,0,0,0,0,0,0,0,0,0,0,0,0,0,0,0,0,0,0,0,0,0,0,0,0,0,0,0,0,0,0,0,0,0,0,0,0,0,0,0,0,0,0,0,0,0,0,0,0,0,0,0,0,0,0,0,0,0,0,0,0,0,0,0,0,0,0,0,0,0,0,0,0,0,0,0,0,0,0,0,0,0,0,0,0,0,0,0,0,0,0,0,0,0,0,0,0,0,0,0,0,0,0,0,0,0,0,0,0,0,0,0,0,0,0,0,0,0,0],"id":7,"left_children":[1,3,5,7,9,11,13,15,17,19,21,23,25,27,29,31,33,35,37,39,41,43,45,47,-1,49,51,53,55,57,59,61,63,65,67,69,71,73,75,77,79,81,83,85,87,89,91,93,95,97,-1,99,101,103,105,107,109,111,113,115,117,-1,-1,-1,-1,-1,-1,-1,-1,-1,-1,-1,-1,-1,-1,-1,-1,-1,-1,-1,-1,-1,-1,-1,-1,-1,-1,-1,-1,-1,-1,-1,-1,-1,-1,-1,-1,-1,-1,-1,-1,-1,-1,-1,-1,-1,-1,-1,-1,-1,-1,-1,-1,-1,-1,-1,-1,-1,-1],"loss_changes":[8.9175034E8,3.009984E8,1.2900339E8,8.2758E7,8.835875E7,2.9822784E7,9.217098E7,2.7883888E7,4.4031824E7,2.5155768E7,8.565792E6,9.172736E6,1.4238344E7,3.508567E7,2.653664E7,8.98272E6,8.917288E6,3.59468E7,7.220912E6,1.2746712E7,1.6789852E7,4.122432E6,1.881728E6,5.745632E6,0E0,1.827096E6,3.169246E6,1.7463768E7,3.5882135E6,8.985824E6,7.727985E5,2.689896E6,8.50476E6,3.3044108E6,3.2957695E6,4.7492E6,2.0078124E7,3.4581685E6,1.58357E6,5.537612E6,9.156352E6,6.51898E6,4.400024E6,2.80424E6,7.444357E5,1.467712E6,1.30073E6,5.192224E6,2.111242E6,1.507328E6,0E0,5.23644E5,2.248948E6,4.6809095E6,1.3279272E7,2.6383718E6,1.2875225E6,9.46368E5,6.971536E6,5.8162562E4,4.518908E5,0E0,0E0,0E0,0E0,0E0,0E0,0E0,0E0,0E0,0E0,0E0,0E0,0E0,0E0,0E0,0E0,0E0,0E0,0E0,0E0,0E0,0E0,0E0,0E0,0E0,0E0,0E0,0E0,0E0,0E0,0E0,0E0,0E0,0E0,0E0,0E0,0E0,0E0,0E0,0E0,0E0,0E0,0E0,0E0,0E0,0E0,0E0,0E0,0E0,0E0,0E0,0E0,0E0,0E0,0E0,0E0,0E0,0E0],"parents":[2147483647,0,0,1,1,2,2,3,3,4,4,5,5,6,6,7,7,8,8,9,9,10,10,11,11,12,12,13,13,14,14,15,15,16,16,17,17,18,18,19,19,20,20,21,21,22,22,23,23,25,25,26,26,27,27,28,28,29,29,30,30,31,31,32,32,33,33,34,34,35,35,36,36,37,37,38,38,39,39,40,40,41,41,42,42,43,43,44,44,45,45,46,46,47,47,48,48,49,49,51,51,52,52,53,53,54,54,55,55,56,56,57,57,58,58,59,59,60,60],"right_children":[2,4,6,8,10,12,14,16,18,20,22,24,26,28,30,32,34,36,38,40,42,44,46,48,-1,50,52,54,56,58,60,62,64,66,68,70,72,74,76,78,80,82,84,86,88,90,92,94,96,98,-1,100,102,104,106,108,110,112,114,116,118,-1,-1,-1,-1,-1,-1,-1,-1,-1,-1,-1,-1,-1,-1,-1,-1,-1,-1,-1,-1,-1,-1,-1,-1,-1,-1,-1,-1,-1,-1,-1,-1,-1,-1,-1,-1,-1,-1,-1,-1,-1,-1,-1,-1,-1,-1,-1,-1,-1,-1,-1,-1,-1,-1,-1,-1,-1,-1],"split_conditions":[1.69241E4,2.6E3,3.6952E4,1.6438856E3,3.14801E3,1.99998E3,2.01054E4,9.9416524E-2,3.884649E4,1.48438E4,2.2369276E-1,1.95476E4,3.3112E4,4.483293E4,4.831407E4,3.250339E4,3.92401E3,1.8898075E-2,3.13682E3,3.0928E3,3.417395E4,1.66672E4,1.44909E4,1.62704E3,-8.4731705E1,1.81014E3,1.64998E3,1.33649E4,3E0,1.7089551E3,2.05224E4,3.57682E3,1E0,-2.43976E3,3.984553E4,2.2E3,4.90445E3,5.162536E2,5.9223E2,2.72599E3,2.787583E4,-2.43976E3,1.9839385E3,6.16291E3,1.9E1,3.5859E4,7.8774524E2,1.99998E3,1.439235E4,2.80498E3,-2.5422716E1,2.4494307E3,2.2724655E-1,9E0,4.14E4,2.7513574E3,2.96725E3,1.949E3,2.16582E4,2.35695E3,2.60001E3,-4.649248E1,-7.739596E1,-1.1689567E1,-5.275575E1,-2.9067892E1,2.9879108E1,-3.5583515E1,2.1339004E0,-7.4814964E1,-5.8495865E0,-2.4028342E0,-1.5527934E1,1.2920347E0,1.2448165E1,2.5303778E1,-1.4307673E1,6.309764E0,1.3313079E1,-1.1717882E1,2.077693E1,-4.880423E1,-1.2785992E1,-8.482609E0,7.7129807E0,2.3639061E1,1.5028188E1,-2.6100468E1,1.19807005E1,2.0870203E1,2.9328766E1,1.6494703E1,2.957543E1,-7.697712E1,-4.773955E1,-5.4608253E1,-2.8157597E1,-4.175192E1,-7.744027E1,-2.4840664E1,-4.6041626E1,-2.5797287E1,1.3410187E0,3.6552542E-1,-1.5588043E1,-4.109826E1,-2.1276007E1,-3.007668E1,4.9838834E0,5.206199E0,1.6019125E1,-7.9134415E1,-1.3158463E1,-4.2267242E1,-6.012336E1,7.5385743E-1,1.4449035E1,-1.1120107E1,4.1787677E0],"split_indices":[4,11,0,19,13,11,4,23,1,4,23,4,0,1,1,1,2,23,13,11,1,4,4,15,0,15,13,22,8,19,4,2,7,15,1,12,2,16,17,13,1,15,19,2,6,0,16,12,22,2,0,19,23,6,0,19,13,17,4,13,12,0,0,0,0,0,0,0,0,0,0,0,0,0,0,0,0,0,0,0,0,0,0,0,0,0,0,0,0,0,0,0,0,0,0,0,0,0,0,0,0,0,0,0,0,0,0,0,0,0,0,0,0,0,0,0,0,0,0],"split_type":[0,0,0,0,0,0,0,0,0,0,0,0,0,0,0,0,0,0,0,0,0,0,0,0,0,0,0,0,0,0,0,0,0,0,0,0,0,0,0,0,0,0,0,0,0,0,0,0,0,0,0,0,0,0,0,0,0,0,0,0,0,0,0,0,0,0,0,0,0,0,0,0,0,0,0,0,0,0,0,0,0,0,0,0,0,0,0,0,0,0,0,0,0,0,0,0,0,0,0,0,0,0,0,0,0,0,0,0,0,0,0,0,0,0,0,0,0,0,0],"sum_hessian":[6.883E3,5.483E3,1.4E3,1.757E3,3.726E3,3.61E2,1.039E3,1.59E2,1.598E3,2.106E3,1.62E3,2.35E2,1.26E2,7.18E2,3.21E2,1.16E2,4.3E1,1.24E3,3.58E2,1.693E3,4.13E2,4.32E2,1.188E3,1.4E2,9.5E1,3.8E1,8.8E1,5.79E2,1.39E2,2.95E2,2.6E1,5.6E1,6E1,1.6E1,2.7E1,2.5E1,1.215E3,2.78E2,8E1,1.146E3,5.47E2,1.01E2,3.12E2,4.26E2,6E0,1.092E3,9.6E1,1E2,4E1,3.4E1,4E0,3.3E1,5.5E1,1.98E2,3.81E2,2E1,1.19E2,3.5E1,2.6E2,7E0,1.9E1,1.6E1,4E1,1.9E1,4.1E1,2E0,1.4E1,1.9E1,8E0,2.2E1,3E0,7.31E2,4.84E2,1.33E2,1.45E2,7.8E1,2E0,5.18E2,6.28E2,2.2E1,5.25E2,1.4E1,8.7E1,4.9E1,2.63E2,2.67E2,1.59E2,5E0,1E0,6.6E1,1.026E3,6.5E1,3.1E1,7.2E1,2.8E1,2.3E1,1.7E1,8E0,2.6E1,8E0,2.5E1,4.6E1,9E0,7.2E1,1.26E2,1.31E2,2.5E2,1E1,1E1,7.5E1,4.4E1,3.4E1,1E0,1.59E2,1.01E2,1E0,6E0,1.2E1,7E0],"tree_param":{"num_deleted":"0","num_feature":"24","num_nodes":"119","size_leaf_vector":"1"}},{"base_weights":[4.5728E0,2.048867E2,-7.520946E2,-1.4077602E1,3.866995E2,-1.0776536E3,-4.8204135E2,-7.142925E2,2.1325815E1,4.6522446E2,2.1125974E2,-8.025405E2,-1.3007196E3,-3.4545142E2,-1.0094057E3,-4.265769E2,-1.1950219E3,1.3688956E2,-1.4781122E2,3.3745004E2,5.2383167E2,2.6377444E2,1.4121383E1,-1.4013451E3,-6.6560675E2,-1.0787584E3,-1.4175743E3,-7.170275E2,-2.5824396E2,-8.289388E1,-8.674307E2,4.35241E2,-6.6364905E2,-3.296695E2,-1.2975114E3,-3.4041157E1,2.3140402E2,-3.5780035E2,-9.628226E1,2.8988196E2,4.1946588E2,5.408587E2,4.0166605E2,1.563853E2,3.4083664E2,-7.030644E2,4.8562828E1,-7.47786E2,-7.2638695E1,-1.1270236E3,-5.686577E2,-1.3549714E3,-7.9875574E2,-1.496187E3,-1.037249E3,9.970215E1,-7.928715E2,-2.1786029E2,-8.7651184E2,-6.9613165E2,-1.111488E3,2.3998318E1,-7.0091066E0,-5.648145E0,-3.994836E1,-2.6958363E1,-4.5064406E0,-6.791979E1,-3.681234E1,-7.662235E0,5.769254E0,8.483051E0,1.9664663E1,-5.87985E0,-2.3337461E1,-7.367696E0,2.740372E0,1.4720049E1,-2.1367872E1,2.461307E1,1.8985044E1,2.3528107E1,2.8255598E1,-1.8279121E1,2.0629301E1,-2.9149377E-1,1.0595277E1,1.5169223E1,2.642929E1,-3.986333E1,1.2638367E0,4.8166676E0,-5.932643E0,-9.108359E0,-4.1223816E1,-3.7766964E1,-7.588201E1,-1.1920112E1,-3.5001087E1,-5.4476765E1,-7.680954E1,-4.721373E1,-2.4282164E1,-7.512412E1,-7.6591735E0,-2.6792606E1,-6.8841034E1,2.017101E1,-3.2309816E0,-3.379848E1,-5.1036106E1,9.605279E-2,-1.500634E1,-3.1516632E1,-6.0688393E1,-3.96187E1,-2.0739904E1,-5.800364E1,5.057239E0],"categories":[],"categories_nodes":[],"categories_segments":[],"categories_sizes":[],"default_left":[0,0,0,0,0,0,0,0,0,0,0,0,0,0,0,0,0,0,0,0,0,0,0,0,0,0,0,0,0,0,0,0,0,0,0,0,0,0,0,0,0,0,0,0,0,0,0,0,0,0,0,0,0,0,0,0,0,0,0,0,0,0,0,0,0,0,0,0,0,0,0,0,0,0,0,0,0,0,0,0,0,0,0,0,0,0,0,0,0,0,0,0,0,0,0,0,0,0,0,0,0,0,0,0,0,0,0,0,0,0,0,0,0,0,0,0,0,0,0],"id":8,"left_children":[1,3,5,7,9,11,13,15,17,19,21,23,25,27,29,31,33,35,37,39,41,43,45,47,49,51,53,55,57,-1,59,61,63,65,67,69,71,73,75,77,79,81,83,85,87,89,91,93,-1,95,97,99,101,103,105,107,109,111,113,115,117,-1,-1,-1,-1,-1,-1,-1,-1,-1,-1,-1,-1,-1,-1,-1,-1,-1,-1,-1,-1,-1,-1,-1,-1,-1,-1,-1,-1,-1,-1,-1,-1,-1,-1,-1,-1,-1,-1,-1,-1,-1,-1,-1,-1,-1,-1,-1,-1,-1,-1,-1,-1,-1,-1,-1,-1,-1,-1],"loss_changes":[1.04417517E9,2.1685333E8,1.2625869E8,6.1296108E7,4.0900224E7,3.902963E7,5.655709E7,1.5949512E7,4.6031772E7,1.5212128E7,9.541432E6,2.3256272E7,7.782208E6,2.0197072E7,1.347672E7,1.5816634E7,3.474588E6,2.2609316E7,1.030997E7,2.410368E6,2.709472E6,5.971368E6,4.850821E6,7.28664E5,1.018472E7,8.817296E6,5.384512E6,7.450388E6,1.2567652E7,0E0,4.870176E6,5.047945E5,4.380816E6,2.5250494E5,3.32612E5,8.905939E6,8.939244E6,4.86505E6,5.9419895E6,1.467684E6,4.96244E5,1.83456E6,1.625424E6,2.7571395E6,2.814008E6,6.37655E5,1.5051825E6,1.100725E5,0E0,4.806296E6,8.59662E6,1.356696E6,2.548628E6,1.376224E6,6.583416E6,5.750512E5,2.213368E6,8.697368E6,1.80871E6,1.891568E6,3.298772E6,0E0,0E0,0E0,0E0,0E0,0E0,0E0,0E0,0E0,0E0,0E0,0E0,0E0,0E0,0E0,0E0,0E0,0E0,0E0,0E0,0E0,0E0,0E0,0E0,0E0,0E0,0E0,0E0,0E0,0E0,0E0,0E0,0E0,0E0,0E0,0E0,0E0,0E0,0E0,0E0,0E0,0E0,0E0,0E0,0E0,0E0,0E0,0E0,0E0,0E0,0E0,0E0,0E0,0E0,0E0,0E0,0E0,0E0],"parents":[2147483647,0,0,1,1,2,2,3,3,4,4,5,5,6,6,7,7,8,8,9,9,10,10,11,11,12,12,13,13,14,14,15,15,16,16,17,17,18,18,19,19,20,20,21,21,22,22,23,23,24,24,25,25,26,26,27,27,28,28,30,30,31,31,32,32,33,33,34,34,35,35,36,36,37,37,38,38,39,39,40,40,41,41,42,42,43,43,44,44,45,45,46,46,47,47,49,49,50,50,51,51,52,52,53,53,54,54,55,55,56,56,57,57,58,58,59,59,60,60],"right_children":[2,4,6,8,10,12,14,16,18,20,22,24,26,28,30,32,34,36,38,40,42,44,46,48,50,52,54,56,58,-1,60,62,64,66,68,70,72,74,76,78,80,82,84,86,88,90,92,94,-1,96,98,100,102,104,106,108,110,112,114,116,118,-1,-1,-1,-1,-1,-1,-1,-1,-1,-1,-1,-1,-1,-1,-1,-1,-1,-1,-1,-1,-1,-1,-1,-1,-1,-1,-1,-1,-1,-1,-1,-1,-1,-1,-1,-1,-1,-1,-1,-1,-1,-1,-1,-1,-1,-1,-1,-1,-1,-1,-1,-1,-1,-1,-1,-1,-1,-1],"split_conditions":[4.6477273E-1,2.88E3,1.2655754E-1,1.3604325E3,3.47401E-1,5.310039E-1,1.95476E4,1.465118E4,3.9422327E-1,3.17622E3,1.61478E4,1.2745946E3,1.390514E4,1.6427E3,3.3425E4,3.7020263E-1,-1.27499E3,1.128E1,2.0311422E3,3.005E3,1.36065E4,3.07401E3,1.1257927E3,1.1257927E3,1.6438856E3,1.73998E3,1.455037E4,4.7181788E-1,6.2424356E-1,-8.289388E1,1.435505E4,4.6119E4,6.9466626E2,1.315E3,1.1655108E-1,2.49999E3,3.04445E3,1.4257E4,2.85001E3,1.489729E4,2.800874E-1,3.35999E3,1.232595E3,2.501E3,2.55833E-1,4.4324E4,4.2879808E-1,1.49463E4,-7.2638695E1,1.45349E3,7E0,6.69162E-1,4.1002E4,2.57315E3,9.80644E3,1.89999E3,2.6733003E3,1.51882E4,4E0,1.9851053E-1,4.8168E4,2.3998318E1,-7.0091066E0,-5.648145E0,-3.994836E1,-2.6958363E1,-4.5064406E0,-6.791979E1,-3.681234E1,-7.662235E0,5.769254E0,8.483051E0,1.9664663E1,-5.87985E0,-2.3337461E1,-7.367696E0,2.740372E0,1.4720049E1,-2.1367872E1,2.461307E1,1.8985044E1,2.3528107E1,2.8255598E1,-1.8279121E1,2.0629301E1,-2.9149377E-1,1.0595277E1,1.5169223E1,2.642929E1,-3.986333E1,1.2638367E0,4.8166676E0,-5.932643E0,-9.108359E0,-4.1223816E1,-3.7766964E1,-7.588201E1,-1.1920112E1,-3.5001087E1,-5.4476765E1,-7.680954E1,-4.721373E1,-2.4282164E1,-7.512412E1,-7.6591735E0,-2.6792606E1,-6.8841034E1,2.017101E1,-3.2309816E0,-3.379848E1,-5.1036106E1,9.605279E-2,-1.500634E1,-3.1516632E1,-6.0688393E1,-3.96187E1,-2.0739904E1,-5.800364E1,5.057239E0],"split_indices":[21,11,23,19,21,21,4,5,21,11,4,18,5,13,0,21,17,3,19,13,4,11,19,19,19,13,5,21,21,0,5,0,18,15,23,11,13,22,13,5,21,11,19,13,23,0,21,4,0,3,6,21,0,15,3,12,19,4,8,23,0,0,0,0,0,0,0,0,0,0,0,0,0,0,0,0,0,0,0,0,0,0,0,0,0,0,0,0,0,0,0,0,0,0,0,0,0,0,0,0,0,0,0,0,0,0,0,0,0,0,0,0,0,0,0,0,0,0,0],"split_type":[0,0,0,0,0,0,0,0,0,0,0,0,0,0,0,0,0,0,0,0,0,0,0,0,0,0,0,0,0,0,0,0,0,0,0,0,0,0,0,0,0,0,0,0,0,0,0,0,0,0,0,0,0,0,0,0,0,0,0,0,0,0,0,0,0,0,0,0,0,0,0,0,0,0,0,0,0,0,0,0,0,0,0,0,0,0,0,0,0,0,0,0,0,0,0,0,0,0,0,0,0,0,0,0,0,0,0,0,0,0,0,0,0,0,0,0,0,0,0],"sum_hessian":[6.887E3,5.446E3,1.441E3,2.471E3,2.975E3,6.52E2,7.89E2,1.18E2,2.353E3,2.054E3,9.21E2,2.94E2,3.58E2,6.28E2,1.61E2,7.5E1,4.3E1,1.398E3,9.55E2,6.48E2,1.406E3,7.27E2,1.94E2,5.3E1,2.41E2,1.27E2,2.31E2,1.18E2,5.1E2,2.7E1,1.34E2,1.6E1,5.9E1,5E0,3.8E1,4.98E2,9E2,1.87E2,7.68E2,4.13E2,2.35E2,1.231E3,1.75E2,3.05E2,4.22E2,8E0,1.86E2,5E0,4.8E1,4E1,2.01E2,6.2E1,6.5E1,1.89E2,4.2E1,1E1,1.08E2,4.8E2,3E1,8.1E1,5.3E1,1.5E1,1E0,1.2E1,4.7E1,2E0,3E0,3.3E1,5E0,2.77E2,2.21E2,6.53E2,2.47E2,5.9E1,1.28E2,5.74E2,1.94E2,4.11E2,2E0,7.9E1,1.56E2,3.21E2,9.1E2,2E0,1.73E2,7.8E1,2.27E2,3.54E2,6.8E1,7E0,1E0,1.45E2,4.1E1,1E0,4E0,2.2E1,1.8E1,5.8E1,1.43E2,2.8E1,3.4E1,4.3E1,2.2E1,1.88E2,1E0,1.8E1,2.4E1,3E0,7E0,7.4E1,3.4E1,1.31E2,3.49E2,1.9E1,1.1E1,5.9E1,2.2E1,5.1E1,2E0],"tree_param":{"num_deleted":"0","num_feature":"24","num_nodes":"119","size_leaf_vector":"1"}},{"base_weights":[2.160021E0,2.2366975E2,-6.199615E2,4.5541515E1,3.9919452E2,-3.3550998E2,-9.202658E2,-6.1106537E2,7.32896E1,4.6313876E2,2.595808E2,-8.331786E2,-2.094647E2,-6.4955164E2,-1.1647936E3,-3.4564322E2,-1.1317438E3,1.9377985E2,-4.018336E1,3.461188E2,5.0618762E2,3.0965997E2,9.488027E0,-1.2199451E3,-6.7109973E2,-7.221458E1,-4.087382E2,-1.256781E3,-5.3212573E2,-9.821387E2,-1.4399092E3,3.9709607E2,-6.3582605E2,-1.1910797E3,-1.215787E2,2.776524E0,2.704066E2,-1.1332464E2,6.8731224E1,3.1717822E2,4.2330295E2,5.078157E2,-1.766982E1,2.6540466E2,4.4652438E2,-3.5606442E2,7.9950005E1,-7.0537897E2,-1.3208606E3,-4.1801752E2,-8.030175E2,-1.905713E2,4.9188023E1,-1.2630971E2,-5.698883E2,-4.4461328E2,-1.4440693E3,-4.3506113E2,-9.1015515E2,-6.880003E2,-1.1010796E3,-1.1937806E3,-1.5378718E3,2.3635685E1,-9.448747E0,1.4278226E1,-3.6107746E1,-3.4047752E1,-6.301634E1,-8.540186E0,-5.7821655E-1,7.8683367E0,-5.091782E0,1.1037181E1,2.0203367E1,-2.09918E0,-1.1812688E1,-4.684531E1,4.4536333E0,1.6031166E1,-9.294128E0,-4.8594646E0,2.1624088E1,2.2709356E1,2.6638386E1,1.5156575E1,7.177732E0,2.5314058E1,7.1232066E0,5.8822894E0,-2.5115564E1,-3.2545773E1,4.940646E0,-8.880649E0,-3.701971E1,-6.673742E1,-1.8092304E1,1.1514731E1,-2.7671865E1,-2.5610716E1,-4.6617214E1,-6.191964E0,-4.7184753E1,-2.2972584E0,1.193903E1,6.040783E0,-1.452021E1,-4.979226E0,-3.1508268E1,-3.262604E-1,-2.8174932E1,-2.6964554E1,-7.342487E1,-1.4927474E1,-3.182913E1,-5.8540314E1,-3.5660038E1,-1.0363085E1,-3.8715973E1,-6.415429E1,-4.6299328E1,-6.5155205E1,-3.1404224E1,-7.836167E1,-4.5444157E1],"categories":[],"categories_nodes":[],"categories_segments":[],"categories_sizes":[],"default_left":[0,0,0,0,0,0,0,0,0,0,0,0,0,0,0,0,0,0,0,0,0,0,0,0,0,0,0,0,0,0,0,0,0,0,0,0,0,0,0,0,0,0,0,0,0,0,0,0,0,0,0,0,0,0,0,0,0,0,0,0,0,0,0,0,0,0,0,0,0,0,0,0,0,0,0,0,0,0,0,0,0,0,0,0,0,0,0,0,0,0,0,0,0,0,0,0,0,0,0,0,0,0,0,0,0,0,0,0,0,0,0,0,0,0,0,0,0,0,0,0,0,0,0,0,0],"id":9,"left_children":[1,3,5,7,9,11,13,15,17,19,21,23,25,27,29,31,33,35,37,39,41,43,45,47,49,51,53,55,57,59,61,63,65,67,69,71,73,75,77,79,81,83,-1,85,87,89,91,93,95,97,99,101,103,105,107,109,111,113,115,117,119,121,123,-1,-1,-1,-1,-1,-1,-1,-1,-1,-1,-1,-1,-1,-1,-1,-1,-1,-1,-1,-1,-1,-1,-1,-1,-1,-1,-1,-1,-1,-1,-1,-1,-1,-1,-1,-1,-1,-1,-1,-1,-1,-1,-1,-1,-1,-1,-1,-1,-1,-1,-1,-1,-1,-1,-1,-1,-1,-1,-1,-1,-1,-1],"loss_changes":[9.457632E8,1.5821862E8,1.5362176E8,4.583059E7,2.2635968E7,5.7975056E7,5.7232064E7,1.3705176E7,3.298558E7,8.625408E6,1.0054176E7,1.0903712E7,2.0237064E7,2.9136496E7,2.1651136E7,1.5124069E7,1.89312E6,1.7123328E7,9.909716E6,9.22304E5,1.963776E6,3.933608E6,3.5057365E6,1.872376E6,4.138048E6,6.331652E6,1.3673056E7,9.549296E6,1.2520056E7,9.003296E6,2.52832E6,9.7567675E5,4.18335E6,2.7216E5,1.4271148E4,5.4498225E6,5.453532E6,6.514881E6,1.0311506E7,6.62716E5,6.43998E5,1.461504E6,0E0,2.291768E6,2.871356E6,1.5832245E6,1.6359514E6,7.1775E4,1.0304E5,4.34158E6,2.794396E6,1.109055E7,3.942938E6,4.5363475E6,5.380168E6,7.254745E5,4.0156E5,7.567776E6,2.80986E6,3.28376E6,5.089856E6,2.6448E6,9.02528E5,0E0,0E0,0E0,0E0,0E0,0E0,0E0,0E0,0E0,0E0,0E0,0E0,0E0,0E0,0E0,0E0,0E0,0E0,0E0,0E0,0E0,0E0,0E0,0E0,0E0,0E0,0E0,0E0,0E0,0E0,0E0,0E0,0E0,0E0,0E0,0E0,0E0,0E0,0E0,0E0,0E0,0E0,0E0,0E0,0E0,0E0,0E0,0E0,0E0,0E0,0E0,0E0,0E0,0E0,0E0,0E0,0E0,0E0,0E0,0E0,0E0,0E0],"parents":[2147483647,0,0,1,1,2,2,3,3,4,4,5,5,6,6,7,7,8,8,9,9,10,10,11,11,12,12,13,13,14,14,15,15,16,16,17,17,18,18,19,19,20,20,21,21,22,22,23,23,24,24,25,25,26,26,27,27,28,28,29,29,30,30,31,31,32,32,33,33,34,34,35,35,36,36,37,37,38,38,39,39,40,40,41,41,43,43,44,44,45,45,46,46,47,47,48,48,49,49,50,50,51,51,52,52,53,53,54,54,55,55,56,56,57,57,58,58,59,59,60,60,61,61,62,62],"right_children":[2,4,6,8,10,12,14,16,18,20,22,24,26,28,30,32,34,36,38,40,42,44,46,48,50,52,54,56,58,60,62,64,66,68,70,72,74,76,78,80,82,84,-1,86,88,90,92,94,96,98,100,102,104,106,108,110,112,114,116,118,120,122,124,-1,-1,-1,-1,-1,-1,-1,-1,-1,-1,-1,-1,-1,-1,-1,-1,-1,-1,-1,-1,-1,-1,-1,-1,-1,-1,-1,-1,-1,-1,-1,-1,-1,-1,-1,-1,-1,-1,-1,-1,-1,-1,-1,-1,-1,-1,-1,-1,-1,-1,-1,-1,-1,-1,-1,-1,-1,-1,-1,-1,-1,-1],"split_conditions":[4.424118E-1,2.95E3,5.085012E-1,1.3604325E3,3.3806112E-1,1.9381871E3,3.64756E3,1.465118E4,3.6424384E-1,3.19697E3,1.60968E4,1.3604325E3,1.68631E4,9.99E2,5.903986E-1,3.7399098E-1,3.10594E3,8.74E0,2.64308E3,3.15001E3,1.500448E4,3.38848E3,2.333592E3,3.41513E3,6E0,2.530755E3,1.345723E4,1.390514E4,6.2424356E-1,1.403215E4,3.60124E3,3.76136E3,1.71E2,3.3174217E-1,4.3178E4,3.1721762E-1,3.13682E3,4.13521E-1,6.9466626E2,3.0684026E3,3.3278E4,3.29999E3,-1.766982E1,1.445402E4,2.9455723E3,3.39901E3,4.0594E4,3.110921E4,1.3137703E3,1.437362E4,3.528E1,1.435479E4,2.95001E3,9E0,2.73329E3,2.00732E3,9.746793E2,7.47024E3,3.2388E4,5.194871E-1,1.40901E3,1.0941855E0,2.9186616E3,2.3635685E1,-9.448747E0,1.4278226E1,-3.6107746E1,-3.4047752E1,-6.301634E1,-8.540186E0,-5.7821655E-1,7.8683367E0,-5.091782E0,1.1037181E1,2.0203367E1,-2.09918E0,-1.1812688E1,-4.684531E1,4.4536333E0,1.6031166E1,-9.294128E0,-4.8594646E0,2.1624088E1,2.2709356E1,2.6638386E1,1.5156575E1,7.177732E0,2.5314058E1,7.1232066E0,5.8822894E0,-2.5115564E1,-3.2545773E1,4.940646E0,-8.880649E0,-3.701971E1,-6.673742E1,-1.8092304E1,1.1514731E1,-2.7671865E1,-2.5610716E1,-4.6617214E1,-6.191964E0,-4.7184753E1,-2.2972584E0,1.193903E1,6.040783E0,-1.452021E1,-4.979226E0,-3.1508268E1,-3.262604E-1,-2.8174932E1,-2.6964554E1,-7.342487E1,-1.4927474E1,-3.182913E1,-5.8540314E1,-3.5660038E1,-1.0363085E1,-3.8715973E1,-6.415429E1,-4.6299328E1,-6.5155205E1,-3.1404224E1,-7.836167E1,-4.5444157E1],"split_indices":[21,11,21,19,21,19,3,22,21,11,4,19,4,11,21,21,13,3,13,12,5,11,18,2,6,19,5,5,21,22,2,3,12,21,0,21,13,21,18,19,0,13,0,22,19,14,0,1,19,5,3,22,13,6,2,2,19,2,0,21,11,20,18,0,0,0,0,0,0,0,0,0,0,0,0,0,0,0,0,0,0,0,0,0,0,0,0,0,0,0,0,0,0,0,0,0,0,0,0,0,0,0,0,0,0,0,0,0,0,0,0,0,0,0,0,0,0,0,0,0,0,0,0,0,0],"split_type":[0,0,0,0,0,0,0,0,0,0,0,0,0,0,0,0,0,0,0,0,0,0,0,0,0,0,0,0,0,0,0,0,0,0,0,0,0,0,0,0,0,0,0,0,0,0,0,0,0,0,0,0,0,0,0,0,0,0,0,0,0,0,0,0,0,0,0,0,0,0,0,0,0,0,0,0,0,0,0,0,0,0,0,0,0,0,0,0,0,0,0,0,0,0,0,0,0,0,0,0,0,0,0,0,0,0,0,0,0,0,0,0,0,0,0,0,0,0,0,0,0,0,0,0,0],"sum_hessian":[6.861E3,5.06E3,1.801E3,2.512E3,2.548E3,9.26E2,8.75E2,1.01E2,2.411E3,1.746E3,8.02E2,1.86E2,7.4E2,4.17E2,4.58E2,6.8E1,3.3E1,1.169E3,1.242E3,4.72E2,1.274E3,6.68E2,1.34E2,5.3E1,1.33E2,4.39E2,3.01E2,6.6E1,3.51E2,2.78E2,1.8E2,1.9E1,4.9E1,3.1E1,2E0,3.35E2,8.34E2,7.43E2,4.99E2,3.47E2,1.25E2,1.272E3,2E0,5.07E2,1.61E2,2.1E1,1.13E2,1E1,4.3E1,4.7E1,8.6E1,2.22E2,2.17E2,1.1E2,1.91E2,1.3E1,5.3E1,2.81E2,7E1,8.2E1,1.96E2,5.5E1,1.25E2,1.7E1,2E0,4E0,4.5E1,5E0,2.6E1,1E0,1E0,1.35E2,2E2,6.1E2,2.24E2,4.71E2,2.72E2,9E0,4.9E2,3.45E2,2E0,2E0,1.23E2,4.1E2,8.62E2,3.86E2,1.21E2,1.34E2,2.7E1,5E0,1.6E1,2E0,1.11E2,1E0,9E0,4.2E1,1E0,8E0,3.9E1,2.8E1,5.8E1,2.05E2,1.7E1,1.45E2,7.2E1,4.4E1,6.6E1,2.2E1,1.69E2,3E0,1E1,2E0,5.1E1,1.69E2,1.12E2,2.8E1,4.2E1,1.3E1,6.9E1,9.3E1,1.03E2,4.5E1,1E1,1.18E2,7E0],"tree_param":{"num_deleted":"0","num_feature":"24","num_nodes":"125","size_leaf_vector":"1"}},{"base_weights":[-2.034997E0,2.1224025E2,-5.932639E2,7.9090775E1,4.2158084E2,-4.2083563E2,-1.0613801E3,-5.9774426E1,1.9258618E2,4.5330188E2,2.3532619E2,-8.776005E2,-2.9554346E2,-1.269003E3,-7.9961206E2,-6.370629E2,-1.5666915E1,2.519823E2,5.968398E1,3.8577945E2,4.9234464E2,-2.6138614E2,2.6378403E2,-1.1645692E3,-7.097189E2,-1.6922995E2,-5.9216174E2,-1.0727092E3,-1.3829646E3,-1.0981313E3,-5.7056104E2,-9.795204E2,-3.1528284E2,3.6877728E1,-1.9430104E2,2.0671753E2,3.5835233E2,9.1289536E1,-3.975633E2,4.432101E2,3.4189832E2,-1.7080824E1,4.9425848E2,-1.1221681E2,-4.3519047E1,2.26452E2,5.3553094E2,-1.4303214E3,-9.7612537E2,-1.1233385E3,-6.2453503E2,-8.999187E1,-3.3431958E2,-3.7758133E2,-7.0714325E2,-7.7006976E2,-1.2216055E3,-6.186216E2,-1.407455E3,-1.1706224E3,-2.834244E2,-4.4263766E2,-8.663055E2,-5.212217E1,-1.8790312E1,1.7938408E1,-2.4215664E1,-4.0346766E0,4.8160014E0,-5.974985E0,-1.9060822E1,1.2512799E1,6.7627473E0,2.1434288E1,1.2027325E1,7.3181214E0,-1.434162E0,-3.684062E1,-1.0163922E1,2.402222E1,1.966923E1,1.503777E1,1.974727E1,2.506464E1,1.6848696E1,6.5952973E0,-9.53936E0,1.4307765E1,2.12864E0,1.3810216E1,2.9237616E1,-7.240871E1,-1.7905348E1,-5.22519E1,-2.4974693E1,-2.5989576E1,-6.595916E1,-1.064806E1,-3.370259E1,-3.8526747E-1,-1.1958991E1,-1.1602618E1,-3.2032745E1,-1.0555147E1,-2.846495E1,-2.7190962E1,-4.2075195E1,-5.2743774E1,-3.0450148E1,-5.236557E1,-6.924789E1,-3.3908897E1,-6.5320864E0,-7.2302666E1,-5.6263103E1,-4.1611626E1,-6.988093E1,-1.5870018E1,-2.9042053E-1,-1.4474688E1,-3.623833E1,-5.7785236E1,-3.0822788E1],"categories":[],"categories_nodes":[],"categories_segments":[],"categories_sizes":[],"default_left":[0,0,0,0,0,0,0,0,0,0,0,0,0,0,0,0,0,0,0,0,0,0,0,0,0,0,0,0,0,0,0,0,0,0,0,0,0,0,0,0,0,0,0,0,0,0,0,0,0,0,0,0,0,0,0,0,0,0,0,0,0,0,0,0,0,0,0,0,0,0,0,0,0,0,0,0,0,0,0,0,0,0,0,0,0,0,0,0,0,0,0,0,0,0,0,0,0,0,0,0,0,0,0,0,0,0,0,0,0,0,0,0,0,0,0,0,0,0,0,0,0,0,0],"id":10,"left_children":[1,3,5,7,9,11,13,15,17,19,21,23,25,27,29,31,33,35,37,39,41,43,45,47,49,51,53,55,57,59,61,63,65,67,69,71,73,75,77,79,81,-1,83,85,-1,87,89,91,93,95,97,99,101,103,105,107,109,111,113,115,117,119,121,-1,-1,-1,-1,-1,-1,-1,-1,-1,-1,-1,-1,-1,-1,-1,-1,-1,-1,-1,-1,-1,-1,-1,-1,-1,-1,-1,-1,-1,-1,-1,-1,-1,-1,-1,-1,-1,-1,-1,-1,-1,-1,-1,-1,-1,-1,-1,-1,-1,-1,-1,-1,-1,-1,-1,-1,-1,-1,-1,-1],"loss_changes":[8.662763E8,1.3986421E8,1.4637651E8,4.838068E7,1.1420192E7,7.591251E7,2.5562048E7,3.515409E7,1.3317712E7,4.20208E6,4.11166E6,1.2952048E7,3.909016E7,4.57872E6,1.4347824E7,1.0490384E7,1.2059131E7,5.544808E6,7.594456E6,1.398352E6,1.84792E6,1.3558221E6,2.627986E6,3.81208E6,5.746208E6,9.584734E6,7.430896E6,3.745712E6,2.274112E6,5.219776E6,4.383452E6,1.39366E6,6.098384E6,6.947558E6,4.037049E6,2.520588E6,2.772016E6,3.2417498E6,2.091194E6,2.9892E5,6.51644E5,0E0,9.92768E5,2.9369744E5,0E0,2.622585E6,2.4695E5,2.66224E5,1.580144E6,2.860344E6,2.99494E6,6.111682E6,7.307414E6,3.42259E6,3.975136E6,1.05487E6,4.85576E5,1.1483775E5,1.37312E5,5.442784E6,8.3046875E4,3.678754E6,1.962892E6,0E0,0E0,0E0,0E0,0E0,0E0,0E0,0E0,0E0,0E0,0E0,0E0,0E0,0E0,0E0,0E0,0E0,0E0,0E0,0E0,0E0,0E0,0E0,0E0,0E0,0E0,0E0,0E0,0E0,0E0,0E0,0E0,0E0,0E0,0E0,0E0,0E0,0E0,0E0,0E0,0E0,0E0,0E0,0E0,0E0,0E0,0E0,0E0,0E0,0E0,0E0,0E0,0E0,0E0,0E0,0E0,0E0,0E0,0E0,0E0],"parents":[2147483647,0,0,1,1,2,2,3,3,4,4,5,5,6,6,7,7,8,8,9,9,10,10,11,11,12,12,13,13,14,14,15,15,16,16,17,17,18,18,19,19,20,20,21,21,22,22,23,23,24,24,25,25,26,26,27,27,28,28,29,29,30,30,31,31,32,32,33,33,34,34,35,35,36,36,37,37,38,38,39,39,40,40,42,42,43,43,45,45,46,46,47,47,48,48,49,49,50,50,51,51,52,52,53,53,54,54,55,55,56,56,57,57,58,58,59,59,60,60,61,61,62,62],"right_children":[2,4,6,8,10,12,14,16,18,20,22,24,26,28,30,32,34,36,38,40,42,44,46,48,50,52,54,56,58,60,62,64,66,68,70,72,74,76,78,80,82,-1,84,86,-1,88,90,92,94,96,98,100,102,104,106,108,110,112,114,116,118,120,122,-1,-1,-1,-1,-1,-1,-1,-1,-1,-1,-1,-1,-1,-1,-1,-1,-1,-1,-1,-1,-1,-1,-1,-1,-1,-1,-1,-1,-1,-1,-1,-1,-1,-1,-1,-1,-1,-1,-1,-1,-1,-1,-1,-1,-1,-1,-1,-1,-1,-1,-1,-1,-1,-1,-1,-1,-1,-1,-1,-1],"split_conditions":[4.424118E-1,3.09701E3,5.583731E-1,2.64308E3,3.6923993E-1,1.9432903E3,-1.41683E3,1.5206698E3,3.7716603E-1,3.35999E3,1.0147762E0,1.4696278E3,1.83405E4,5.9867364E-1,1.75E3,1.4E1,4.1063344E-1,3.14401E3,9.46498E3,2.9611596E-1,1.232595E3,9.46498E3,3.05276E3,-1.26598E3,2.309E2,4.9667853E-1,1.390514E4,5.01799E3,1.65526E4,2.5941533E3,7.72462E3,3.20001E3,2.30522E3,3.5316E4,1.440662E4,1.7E1,5.8337E3,6.66852E3,2E3,1.9E1,1.0661467E0,-1.7080824E1,1.45997E4,2.28988E3,-4.3519047E1,4.13521E-1,3.23E3,1.721E3,1.3604325E3,3.19861E3,1.3275884E3,6.43584E3,1.435479E4,5.194871E-1,4.9460018E-1,3.159178E4,1.433146E4,1.2553828E3,1.0811677E0,1.410725E4,1.91117E3,6.5007645E-1,1.81014E3,-5.212217E1,-1.8790312E1,1.7938408E1,-2.4215664E1,-4.0346766E0,4.8160014E0,-5.974985E0,-1.9060822E1,1.2512799E1,6.7627473E0,2.1434288E1,1.2027325E1,7.3181214E0,-1.434162E0,-3.684062E1,-1.0163922E1,2.402222E1,1.966923E1,1.503777E1,1.974727E1,2.506464E1,1.6848696E1,6.5952973E0,-9.53936E0,1.4307765E1,2.12864E0,1.3810216E1,2.9237616E1,-7.240871E1,-1.7905348E1,-5.22519E1,-2.4974693E1,-2.5989576E1,-6.595916E1,-1.064806E1,-3.370259E1,-3.8526747E-1,-1.1958991E1,-1.1602618E1,-3.2032745E1,-1.0555147E1,-2.846495E1,-2.7190962E1,-4.2075195E1,-5.2743774E1,-3.0450148E1,-5.236557E1,-6.924789E1,-3.3908897E1,-6.5320864E0,-7.2302666E1,-5.6263103E1,-4.1611626E1,-6.988093E1,-1.5870018E1,-2.9042053E-1,-1.4474688E1,-3.623833E1,-5.7785236E1,-3.0822788E1],"split_indices":[21,11,21,13,21,19,15,19,21,11,20,19,4,21,11,6,21,13,2,21,19,2,15,15,11,21,22,2,4,19,2,14,2,0,5,6,2,2,11,6,20,0,4,14,0,21,11,17,19,2,18,2,22,21,21,1,22,16,20,22,14,21,15,0,0,0,0,0,0,0,0,0,0,0,0,0,0,0,0,0,0,0,0,0,0,0,0,0,0,0,0,0,0,0,0,0,0,0,0,0,0,0,0,0,0,0,0,0,0,0,0,0,0,0,0,0,0,0,0,0,0,0,0],"split_type":[0,0,0,0,0,0,0,0,0,0,0,0,0,0,0,0,0,0,0,0,0,0,0,0,0,0,0,0,0,0,0,0,0,0,0,0,0,0,0,0,0,0,0,0,0,0,0,0,0,0,0,0,0,0,0,0,0,0,0,0,0,0,0,0,0,0,0,0,0,0,0,0,0,0,0,0,0,0,0,0,0,0,0,0,0,0,0,0,0,0,0,0,0,0,0,0,0,0,0,0,0,0,0,0,0,0,0,0,0,0,0,0,0,0,0,0,0,0,0,0,0,0,0],"sum_hessian":[6.836E3,5.018E3,1.818E3,3.068E3,1.95E3,1.33E3,4.88E2,1.38E3,1.688E3,1.665E3,2.85E2,2.85E2,1.045E3,2.7E2,2.18E2,9.7E1,1.283E3,1.166E3,5.22E2,6.14E2,1.051E3,1.5E1,2.7E2,1.03E2,1.82E2,7.34E2,3.11E2,1.03E2,1.67E2,9.3E1,1.25E2,4.6E1,5.1E1,9.92E2,2.91E2,8.2E2,3.46E2,4.89E2,3.3E1,2.62E2,3.52E2,2E0,1.049E3,1.3E1,2E0,2.39E2,3.1E1,4E1,6.3E1,2.9E1,1.53E2,4.97E2,2.37E2,1.1E2,2.01E2,3.6E1,6.7E1,6E0,1.61E2,8.5E1,8E0,8.9E1,3.6E1,4.1E1,5E0,1E1,4.1E1,3.33E2,6.59E2,2.09E2,8.2E1,5.08E2,3.12E2,2.15E2,1.31E2,3.35E2,1.54E2,1.1E1,2.2E1,1.45E2,1.17E2,2.02E2,1.5E2,1.002E3,4.7E1,3E0,1E1,1.8E2,5.9E1,6E0,2.5E1,3.9E1,1E0,5.4E1,9E0,8E0,2.1E1,1.7E1,1.36E2,3.21E2,1.76E2,1.79E2,5.8E1,6E1,5E1,9.3E1,1.08E2,1.1E1,2.5E1,3.6E1,3.1E1,5E0,1E0,1.38E2,2.3E1,3.6E1,4.9E1,7E0,1E0,5.9E1,3E1,1.5E1,2.1E1],"tree_param":{"num_deleted":"0","num_feature":"24","num_nodes":"123","size_leaf_vector":"1"}},{"base_weights":[-9.378946E0,1.5788298E2,-6.943612E2,3.2107596E2,-3.980926E1,-9.8454926E2,-4.4265317E2,1.937661E2,4.342873E2,-4.2470258E2,1.2558616E1,-7.298092E2,-1.112311E3,-2.9188672E2,-8.0325806E2,8.14588E1,2.5322055E2,3.7070227E2,4.6960907E2,-6.912248E2,-2.782617E2,-6.532734E1,1.9530388E2,-1.1887866E3,-6.1212177E2,-1.2694231E3,-9.212299E2,-4.489754E2,-1.3791672E2,-1.2968339E3,-6.809333E2,1.00989204E2,-4.1108844E2,2.1215695E2,3.4105103E2,4.4533688E2,3.3602982E2,4.75462E2,2.6735483E2,-9.0195667E2,-3.7857474E2,-4.2022128E2,5.3683525E1,3.3280853E1,-1.4590836E2,4.6926483E1,2.6375745E2,-6.8685356E1,-9.58236E2,-2.1437262E2,-7.250013E2,-1.3294219E3,-1.0280106E3,-7.6553534E2,-1.0657065E3,-6.399981E2,-3.547483E2,-2.534404E1,-4.137571E2,-1.3663204E3,-2.6163345E1,-5.5105975E2,-9.33291E2,-1.5804988E0,1.0132553E1,-4.30294E1,1.5727348E1,1.3220168E1,7.18391E0,1.9990093E1,8.208397E0,7.1517496E0,2.2749727E1,2.3887815E1,1.5870613E1,-1.6707392E1,2.3830868E1,-1.2816362E1,1.5615485E1,-6.0973255E1,-3.1108988E1,9.055454E0,-2.2748646E1,-8.70786E0,-2.6606009E1,1.3280086E1,-1.1275251E1,-9.197944E0,5.5294394E0,-3.6446419E0,-1.435614E1,7.407183E0,-5.6800494E0,1.4510922E1,-1.9008942E0,-5.010474E1,-1.732163E1,-1.9546247E1,4.708637E0,-2.1852737E1,-4.2272243E1,-5.3680122E1,-7.0079605E1,-5.8892788E1,-3.383318E1,-4.8932827E1,-2.635286E1,-5.5556087E1,-2.5161734E1,-2.8002949E1,-4.7986115E1,-1.3838533E1,-2.9021564E1,5.1375175E0,-1.0729291E1,-6.646609E1,-1.499795E1,-2.8748297E1,-7.0961754E1,-3.447112E1,-2.0750229E1,-4.8686592E1,5.9610066E0],"categories":[],"categories_nodes":[],"categories_segments":[],"categories_sizes":[],"default_left":[0,0,0,0,0,0,0,0,0,0,0,0,0,0,0,0,0,0,0,0,0,0,0,0,0,0,0,0,0,0,0,0,0,0,0,0,0,0,0,0,0,0,0,0,0,0,0,0,0,0,0,0,0,0,0,0,0,0,0,0,0,0,0,0,0,0,0,0,0,0,0,0,0,0,0,0,0,0,0,0,0,0,0,0,0,0,0,0,0,0,0,0,0,0,0,0,0,0,0,0,0,0,0,0,0,0,0,0,0,0,0,0,0,0,0,0,0,0,0,0,0,0,0],"id":11,"left_children":[1,3,5,7,9,11,13,15,17,19,21,23,25,27,29,31,33,35,37,39,41,43,45,47,49,51,53,55,57,59,61,63,65,67,69,71,73,75,77,79,81,83,85,87,89,91,93,-1,95,97,99,101,103,105,107,109,111,113,115,117,-1,119,121,-1,-1,-1,-1,-1,-1,-1,-1,-1,-1,-1,-1,-1,-1,-1,-1,-1,-1,-1,-1,-1,-1,-1,-1,-1,-1,-1,-1,-1,-1,-1,-1,-1,-1,-1,-1,-1,-1,-1,-1,-1,-1,-1,-1,-1,-1,-1,-1,-1,-1,-1,-1,-1,-1,-1,-1,-1,-1,-1,-1],"loss_changes":[7.840075E8,1.7745366E8,9.766048E7,4.3342016E7,5.0153576E7,1.9464384E7,3.896424E7,9.460948E6,3.40592E6,1.1438524E7,3.1197894E7,1.0669672E7,1.1229248E7,1.2273416E7,1.1916768E7,4.783999E6,3.274604E6,1.335728E6,1.08152E6,6.576504E6,9.164384E6,1.2217779E7,6.640434E6,4.74272E5,7.477192E6,1.877888E6,3.45808E6,4.308844E6,8.0320055E6,1.488904E6,5.122936E6,6.409538E6,6.467978E6,2.233892E6,2.98962E6,4.57516E5,8.93244E5,1.086208E6,8.098575E5,4.748828E6,1.963788E6,3.651992E6,3.5506372E6,1.1642036E7,8.702046E6,3.3964418E6,3.588436E6,0E0,2.43164E5,2.161316E6,4.208432E6,1.74464E6,1.782716E6,4.31254E6,1.893152E6,1.558296E6,2.84865E6,4.5065985E6,7.415475E6,7.33336E5,0E0,1.89758E6,2.54226E6,0E0,0E0,0E0,0E0,0E0,0E0,0E0,0E0,0E0,0E0,0E0,0E0,0E0,0E0,0E0,0E0,0E0,0E0,0E0,0E0,0E0,0E0,0E0,0E0,0E0,0E0,0E0,0E0,0E0,0E0,0E0,0E0,0E0,0E0,0E0,0E0,0E0,0E0,0E0,0E0,0E0,0E0,0E0,0E0,0E0,0E0,0E0,0E0,0E0,0E0,0E0,0E0,0E0,0E0,0E0,0E0,0E0,0E0,0E0,0E0],"parents":[2147483647,0,0,1,1,2,2,3,3,4,4,5,5,6,6,7,7,8,8,9,9,10,10,11,11,12,12,13,13,14,14,15,15,16,16,17,17,18,18,19,19,20,20,21,21,22,22,23,23,24,24,25,25,26,26,27,27,28,28,29,29,30,30,31,31,32,32,33,33,34,34,35,35,36,36,37,37,38,38,39,39,40,40,41,41,42,42,43,43,44,44,45,45,46,46,48,48,49,49,50,50,51,51,52,52,53,53,54,54,55,55,56,56,57,57,58,58,59,59,61,61,62,62],"right_children":[2,4,6,8,10,12,14,16,18,20,22,24,26,28,30,32,34,36,38,40,42,44,46,48,50,52,54,56,58,60,62,64,66,68,70,72,74,76,78,80,82,84,86,88,90,92,94,-1,96,98,100,102,104,106,108,110,112,114,116,118,-1,120,122,-1,-1,-1,-1,-1,-1,-1,-1,-1,-1,-1,-1,-1,-1,-1,-1,-1,-1,-1,-1,-1,-1,-1,-1,-1,-1,-1,-1,-1,-1,-1,-1,-1,-1,-1,-1,-1,-1,-1,-1,-1,-1,-1,-1,-1,-1,-1,-1,-1,-1,-1,-1,-1,-1,-1,-1,-1,-1,-1,-1],"split_conditions":[4.7387245E-1,3.5756412E-1,1.2655754E-1,3.0928E3,1.9289092E3,5.194871E-1,1.8832E4,2.646E3,3.35999E3,1.3604325E3,2.1337764E-1,1.2745946E3,1.0608922E0,2.35695E3,3.411E4,1.474867E4,3.12999E3,2.8108683E-1,1.47551E4,1.71999E3,1.461383E4,4.0189734E-1,2.62354E3,1.0621887E0,1E0,1.0111483E-1,6.20566E3,1.5274E3,7.844E3,2.9297004E3,1.435505E4,8.74E0,1.3137703E3,3.2254633E-1,6.6982E3,2.1337764E-1,2.339526E3,1.232595E3,4.361203E4,7.005589E-2,-5.01938E3,4.0689674E-1,1.2E1,1.085E1,6.62918E3,4.18915E-1,9.42177E3,-6.8685356E1,7.2801E2,1.0868418E0,4.14103E3,1.345723E4,1.0404842E0,1.74997E3,1.458754E4,2.8680305E3,5.629995E-1,6.5095E2,3.0732E4,2.502349E4,-2.6163345E1,2.099E3,4.7074E4,-1.5804988E0,1.0132553E1,-4.30294E1,1.5727348E1,1.3220168E1,7.18391E0,1.9990093E1,8.208397E0,7.1517496E0,2.2749727E1,2.3887815E1,1.5870613E1,-1.6707392E1,2.3830868E1,-1.2816362E1,1.5615485E1,-6.0973255E1,-3.1108988E1,9.055454E0,-2.2748646E1,-8.70786E0,-2.6606009E1,1.3280086E1,-1.1275251E1,-9.197944E0,5.5294394E0,-3.6446419E0,-1.435614E1,7.407183E0,-5.6800494E0,1.4510922E1,-1.9008942E0,-5.010474E1,-1.732163E1,-1.9546247E1,4.708637E0,-2.1852737E1,-4.2272243E1,-5.3680122E1,-7.0079605E1,-5.8892788E1,-3.383318E1,-4.8932827E1,-2.635286E1,-5.5556087E1,-2.5161734E1,-2.8002949E1,-4.7986115E1,-1.3838533E1,-2.9021564E1,5.1375175E0,-1.0729291E1,-6.646609E1,-1.499795E1,-2.8748297E1,-7.0961754E1,-3.447112E1,-2.0750229E1,-4.8686592E1,5.9610066E0],"split_indices":[21,21,23,11,19,21,4,13,11,19,23,18,20,13,0,5,13,21,4,13,5,21,13,20,7,23,2,13,2,18,5,3,19,21,2,23,18,19,1,23,15,21,6,3,2,21,3,0,17,20,2,5,20,13,5,19,21,3,0,1,0,13,0,0,0,0,0,0,0,0,0,0,0,0,0,0,0,0,0,0,0,0,0,0,0,0,0,0,0,0,0,0,0,0,0,0,0,0,0,0,0,0,0,0,0,0,0,0,0,0,0,0,0,0,0,0,0,0,0,0,0,0,0],"split_type":[0,0,0,0,0,0,0,0,0,0,0,0,0,0,0,0,0,0,0,0,0,0,0,0,0,0,0,0,0,0,0,0,0,0,0,0,0,0,0,0,0,0,0,0,0,0,0,0,0,0,0,0,0,0,0,0,0,0,0,0,0,0,0,0,0,0,0,0,0,0,0,0,0,0,0,0,0,0,0,0,0,0,0,0,0,0,0,0,0,0,0,0,0,0,0,0,0,0,0,0,0,0,0,0,0,0,0,0,0,0,0,0,0,0,0,0,0,0,0,0,0,0,0],"sum_hessian":[6.841E3,5.499E3,1.342E3,3.012E3,2.487E3,6.22E2,7.2E2,1.419E3,1.593E3,2.97E2,2.19E3,2.1E2,4.12E2,5.09E2,2.11E2,4.92E2,9.27E2,5.73E2,1.02E3,1.04E2,1.93E2,1.536E3,6.54E2,4.1E1,1.69E2,2.23E2,1.89E2,2.51E2,2.58E2,4E1,1.71E2,4.74E2,1.8E1,6.34E2,2.93E2,1.78E2,3.95E2,9.9E2,3E1,6.1E1,4.3E1,1.35E2,5.8E1,6.91E2,8.45E2,2.07E2,4.47E2,2E1,2.1E1,3.8E1,1.31E2,1.75E2,4.8E1,9.4E1,9.5E1,8.1E1,1.7E2,1.84E2,7.4E1,3.6E1,4E0,1.15E2,5.6E1,2.06E2,2.68E2,1.1E1,7E0,3.58E2,2.76E2,2.19E2,7.4E1,6E0,1.72E2,4.3E1,3.52E2,1E0,9.89E2,2E0,2.8E1,2.7E1,3.4E1,5E0,3.8E1,4.3E1,9.2E1,3.3E1,2.5E1,1.81E2,5.1E2,5.58E2,2.87E2,1.27E2,8E1,4.11E2,3.6E1,1.9E1,2E0,2.4E1,1.4E1,4E1,9.1E1,4.2E1,1.33E2,3.2E1,1.6E1,4.8E1,4.6E1,8.7E1,8E0,6.7E1,1.4E1,1.28E2,4.2E1,1.1E2,7.4E1,7E0,6.7E1,3E0,3.3E1,5.5E1,6E1,5.4E1,2E0],"tree_param":{"num_deleted":"0","num_feature":"24","num_nodes":"123","size_leaf_vector":"1"}},{"base_weights":[-2.378173E0,1.8964787E2,-5.3317975E2,-3.5734833E1,2.9003592E2,-3.4534857E2,-8.846724E2,-5.720563E2,6.5664256E-1,1.9503694E2,3.959579E2,-7.505665E2,-2.3821141E2,-1.0757028E3,-6.347999E2,-3.0379855E2,-9.4413306E2,-7.8166954E1,1.927992E2,2.4082251E2,7.240265E1,4.104708E2,-6.768226E1,-1.0979229E3,-5.974106E2,-1.3798378E2,-4.8569382E2,-8.9050214E2,-1.2286287E3,-9.355016E2,-4.524698E2,3.9621747E2,-5.1024258E2,-1.1148156E3,-6.077657E2,5.4100616E1,-1.2369874E2,4.8581985E1,2.8969907E2,1.9605766E2,3.149528E2,5.621949E0,1.9220566E2,3.1266226E2,4.4063E2,-4.445986E2,1.8983147E2,-1.2913015E3,-9.23983E2,-7.4221375E2,-3.6960278E2,-1.0410173E3,-1.2143116E2,-2.738884E2,-5.756631E2,-6.0661163E2,-1.0042117E3,-1.1021425E3,-1.3514634E3,-9.6347345E2,1.6368763E1,-4.7083084E2,2.2508652E1,2.2029692E1,-4.5168886E0,-2.767365E1,1.46942215E1,-5.69711E1,-1.2491397E1,-3.797782E1,-1.1409422E1,-2.388242E0,1.0537461E1,-4.607601E0,-1.268439E1,-3.034232E1,4.003295E0,1.7075434E1,-2.7791977E0,9.97212E0,-2.0454075E1,1.9104122E1,1.2720647E1,-5.757826E0,3.162033E0,1.2126171E1,-1.9643148E0,2.130142E1,1.3567641E1,2.2446274E1,1.6069168E1,-2.4848606E1,1.5071784E1,1.4065925E1,-1.5211561E0,-6.554024E1,-1.6679993E1,-3.6202694E1,-5.5884937E1,-3.1022253E1,-5.4651165E1,7.5635605E0,-2.6336857E1,-6.1104256E1,-2.715528E1,-1.1028816E1,1.9542191E0,-4.7979543E-1,-2.2406477E1,-1.3641289E1,-3.2988003E1,-3.8453125E1,-1.9123549E1,-6.133905E1,-4.3632954E1,-3.8915462E1,-6.508665E1,-4.20301E1,-6.883713E1,-3.3896393E1,-5.647395E1,-1.7034365E1,-2.8636473E1],"categories":[],"categories_nodes":[],"categories_segments":[],"categories_sizes":[],"default_left":[0,0,0,0,0,0,0,0,0,0,0,0,0,0,0,0,0,0,0,0,0,0,0,0,0,0,0,0,0,0,0,0,0,0,0,0,0,0,0,0,0,0,0,0,0,0,0,0,0,0,0,0,0,0,0,0,0,0,0,0,0,0,0,0,0,0,0,0,0,0,0,0,0,0,0,0,0,0,0,0,0,0,0,0,0,0,0,0,0,0,0,0,0,0,0,0,0,0,0,0,0,0,0,0,0,0,0,0,0,0,0,0,0,0,0,0,0,0,0,0,0,0,0],"id":12,"left_children":[1,3,5,7,9,11,13,15,17,19,21,23,25,27,29,31,33,35,37,39,41,43,45,47,49,51,53,55,57,59,61,63,65,67,69,71,73,75,77,79,81,83,85,87,89,91,93,95,97,99,101,103,105,107,109,111,113,115,117,119,-1,121,-1,-1,-1,-1,-1,-1,-1,-1,-1,-1,-1,-1,-1,-1,-1,-1,-1,-1,-1,-1,-1,-1,-1,-1,-1,-1,-1,-1,-1,-1,-1,-1,-1,-1,-1,-1,-1,-1,-1,-1,-1,-1,-1,-1,-1,-1,-1,-1,-1,-1,-1,-1,-1,-1,-1,-1,-1,-1,-1,-1,-1],"loss_changes":[7.0136384E8,1.1433818E8,1.2038141E8,3.0408686E7,3.5101184E7,5.1613984E7,2.9675456E7,9.594608E6,2.2127306E7,1.0342016E7,1.1143728E7,1.2590816E7,2.33733E7,9.073472E6,1.48186E7,8.728502E6,1.676348E6,6.245876E6,5.925143E6,4.394912E6,4.0231855E6,4.587872E6,5.0345165E6,1.329576E6,5.498456E6,9.948249E6,5.025564E6,4.749496E6,1.52464E6,3.989224E6,3.112316E6,3.4208425E5,1.761743E6,2.68732E5,7.485395E5,4.25465E6,3.138284E6,3.5978845E6,4.562782E6,1.802106E6,1.951056E6,2.262031E6,2.106197E6,1.668652E6,1.064528E6,9.7032575E5,6.332221E5,1.79096E5,8.56092E5,3.849908E6,5.808984E6,4.18149E5,1.0559828E7,3.817902E6,4.65886E6,1.526448E6,2.355152E6,5.514888E6,5.664E4,4.069312E6,0E0,2.085848E6,0E0,0E0,0E0,0E0,0E0,0E0,0E0,0E0,0E0,0E0,0E0,0E0,0E0,0E0,0E0,0E0,0E0,0E0,0E0,0E0,0E0,0E0,0E0,0E0,0E0,0E0,0E0,0E0,0E0,0E0,0E0,0E0,0E0,0E0,0E0,0E0,0E0,0E0,0E0,0E0,0E0,0E0,0E0,0E0,0E0,0E0,0E0,0E0,0E0,0E0,0E0,0E0,0E0,0E0,0E0,0E0,0E0,0E0,0E0,0E0,0E0],"parents":[2147483647,0,0,1,1,2,2,3,3,4,4,5,5,6,6,7,7,8,8,9,9,10,10,11,11,12,12,13,13,14,14,15,15,16,16,17,17,18,18,19,19,20,20,21,21,22,22,23,23,24,24,25,25,26,26,27,27,28,28,29,29,30,30,31,31,32,32,33,33,34,34,35,35,36,36,37,37,38,38,39,39,40,40,41,41,42,42,43,43,44,44,45,45,46,46,47,47,48,48,49,49,50,50,51,51,52,52,53,53,54,54,55,55,56,56,57,57,58,58,59,59,61,61],"right_children":[2,4,6,8,10,12,14,16,18,20,22,24,26,28,30,32,34,36,38,40,42,44,46,48,50,52,54,56,58,60,62,64,66,68,70,72,74,76,78,80,82,84,86,88,90,92,94,96,98,100,102,104,106,108,110,112,114,116,118,120,-1,122,-1,-1,-1,-1,-1,-1,-1,-1,-1,-1,-1,-1,-1,-1,-1,-1,-1,-1,-1,-1,-1,-1,-1,-1,-1,-1,-1,-1,-1,-1,-1,-1,-1,-1,-1,-1,-1,-1,-1,-1,-1,-1,-1,-1,-1,-1,-1,-1,-1,-1,-1,-1,-1,-1,-1,-1,-1,-1,-1,-1,-1],"split_conditions":[4.424118E-1,2.61599E3,5.3775823E-1,1.3604325E3,3.12999E3,1.9432903E3,-2.2016E2,1.452611E4,2.847E3,3.8049713E-1,1.63773E4,1.3604325E3,8.62739E3,5.903986E-1,1.87499E3,3.6688292E-1,1.65E3,3.4856543E-1,6.757E1,3.05714E3,2.2565466E-1,2.2212432E-1,7E0,-1.26598E3,1.67408E3,1.2120337E3,4.6753398E-1,1.345723E4,1.345723E4,2.8384434E3,3.145E3,3.76136E3,3.2E3,1.7686871E3,1.29305E3,1.397913E4,1.44453E4,1.042E3,1.7975E4,1.500448E4,3.1637445E-1,2.6027388E3,5.44142E3,2.800874E-1,1.44909E4,1.467836E4,3.8348824E-1,1.721E3,1.64405E3,1.2E1,1.3275884E3,7.997E1,2.69999E3,9E0,1.345723E4,-7.16808E3,2.3176333E3,6.69162E-1,1.74453E4,1.410725E4,1.6368763E1,4.3962228E2,2.2508652E1,2.2029692E1,-4.5168886E0,-2.767365E1,1.46942215E1,-5.69711E1,-1.2491397E1,-3.797782E1,-1.1409422E1,-2.388242E0,1.0537461E1,-4.607601E0,-1.268439E1,-3.034232E1,4.003295E0,1.7075434E1,-2.7791977E0,9.97212E0,-2.0454075E1,1.9104122E1,1.2720647E1,-5.757826E0,3.162033E0,1.2126171E1,-1.9643148E0,2.130142E1,1.3567641E1,2.2446274E1,1.6069168E1,-2.4848606E1,1.5071784E1,1.4065925E1,-1.5211561E0,-6.554024E1,-1.6679993E1,-3.6202694E1,-5.5884937E1,-3.1022253E1,-5.4651165E1,7.5635605E0,-2.6336857E1,-6.1104256E1,-2.715528E1,-1.1028816E1,1.9542191E0,-4.7979543E-1,-2.2406477E1,-1.3641289E1,-3.2988003E1,-3.8453125E1,-1.9123549E1,-6.133905E1,-4.3632954E1,-3.8915462E1,-6.508665E1,-4.20301E1,-6.883713E1,-3.3896393E1,-5.647395E1,-1.7034365E1,-2.8636473E1],"split_indices":[21,11,21,19,13,19,15,5,13,21,4,19,3,21,12,21,13,21,3,11,23,23,8,15,15,18,21,5,5,18,11,3,12,18,15,5,22,11,4,5,21,18,3,21,4,22,21,17,15,6,18,3,13,6,5,15,18,21,4,5,0,16,0,0,0,0,0,0,0,0,0,0,0,0,0,0,0,0,0,0,0,0,0,0,0,0,0,0,0,0,0,0,0,0,0,0,0,0,0,0,0,0,0,0,0,0,0,0,0,0,0,0,0,0,0,0,0,0,0,0,0,0,0],"split_type":[0,0,0,0,0,0,0,0,0,0,0,0,0,0,0,0,0,0,0,0,0,0,0,0,0,0,0,0,0,0,0,0,0,0,0,0,0,0,0,0,0,0,0,0,0,0,0,0,0,0,0,0,0,0,0,0,0,0,0,0,0,0,0,0,0,0,0,0,0,0,0,0,0,0,0,0,0,0,0,0,0,0,0,0,0,0,0,0,0,0,0,0,0,0,0,0,0,0,0,0,0,0,0,0,0,0,0,0,0,0,0,0,0,0,0,0,0,0,0,0,0,0,0],"sum_hessian":[6.879E3,5.052E3,1.827E3,1.557E3,3.495E3,1.192E3,6.35E2,9.8E1,1.459E3,1.844E3,1.651E3,2.48E2,9.44E2,3.58E2,2.77E2,5.8E1,4E1,1.035E3,4.24E2,1.342E3,5.02E2,1.601E3,5E1,7.4E1,1.74E2,6.73E2,2.71E2,1.65E2,1.93E2,1.03E2,1.74E2,1.3E1,4.5E1,2.5E1,1.5E1,2.65E2,7.7E2,1.71E2,2.53E2,8.39E2,5.03E2,3.23E2,1.79E2,3.8E2,1.221E3,2E1,3E1,3.2E1,4.2E1,1.05E2,6.9E1,1.1E1,6.62E2,8.2E1,1.89E2,4.9E1,1.16E2,1E2,9.3E1,1.01E2,2E0,1.71E2,3E0,1.2E1,1E0,4.3E1,2E0,2.4E1,1E0,1E1,5E0,1.61E2,1.04E2,6.21E2,1.49E2,7E0,1.64E2,2.2E2,3.3E1,8.35E2,4E0,2.36E2,2.67E2,1.04E2,2.19E2,1.47E2,3.2E1,9.9E1,2.81E2,1.139E3,8.2E1,1.9E1,1E0,2.1E1,9E0,3.1E1,1E0,2.3E1,1.9E1,8E1,2.5E1,1.6E1,5.3E1,7E0,4E0,4.09E2,2.53E2,3.3E1,4.9E1,4.2E1,1.47E2,2.7E1,2.2E1,4E1,7.6E1,4E1,6E1,6E0,8.7E1,3.9E1,6.2E1,7.7E1,9.4E1],"tree_param":{"num_deleted":"0","num_feature":"24","num_nodes":"123","size_leaf_vector":"1"}},{"base_weights":[-3.472326E0,1.8437859E2,-4.9223712E2,1.9944588E1,3.1436554E2,-2.3227878E2,-7.2781146E2,-5.070231E2,4.5616238E1,3.9691174E2,2.2712634E2,-6.380407E2,-1.2982114E2,-9.550508E2,-5.0002762E2,-3.053262E2,-1.0291747E3,-2.0033941E1,1.9810234E2,3.1336804E2,4.2867694E2,1.7887674E2,3.4641888E2,-9.5222546E2,-5.026252E2,-2.3682995E1,-2.991785E2,-7.6486615E2,-1.0551045E3,-7.673174E2,-3.0674817E2,2.368735E2,-5.651236E2,-1.245471E1,-1.0796003E3,7.185089E1,-8.856776E1,2.7570398E2,4.5962242E1,2.2329033E2,3.5409286E2,2.7387326E2,4.3257495E2,-3.7606677E2,1.874507E2,3.6808746E2,-4.9793476E1,-3.2992566E2,-1.00899225E3,-3.688838E2,-7.740624E2,-2.9462387E2,5.2031788E1,-1.9450948E2,-6.640711E2,-9.9725653E2,-6.019928E2,-1.2516548E3,-9.176521E2,-6.165824E2,-1.1253981E3,-2.3718788E2,-6.102245E2,-5.6990314E0,1.6514303E1,-1.1790949E0,-3.483159E1,-1.1391788E1,-5.5227875E1,-4.780129E-1,8.074493E0,-9.795324E0,-2.2490785E0,1.9282831E1,1.1283538E1,-2.9782026E1,4.351299E0,2.6831813E0,1.14206E1,1.4153628E1,1.9666254E1,-9.317896E0,1.4891051E1,1.8897175E1,2.207257E1,-2.2410471E1,1.5848254E1,8.272893E0,1.8741457E1,1.5656674E1,2.1689987E1,-1.9951553E1,1.2269366E1,-1.8261711E1,-3.8345704E0,-5.2431744E1,-1.5042699E1,-1.8745425E0,-2.4533375E1,-5.1754303E1,-3.1757498E1,-1.7915867E1,1.4967113E0,5.7990065E0,-1.05501585E1,-6.2550855E0,-3.902726E1,-1.3274007E0,-3.597642E1,-3.516773E1,-5.574292E1,-2.2007715E1,-5.4151417E1,-3.6892845E1,-6.440098E1,-4.9760128E1,-3.1444746E1,-2.491017E1,-4.2521038E1,-4.1551453E1,-6.5336845E1,-9.10551E0,-3.2385033E1,-1.9016966E1,-3.6713234E1],"categories":[],"categories_nodes":[],"categories_segments":[],"categories_sizes":[],"default_left":[0,0,0,0,0,0,0,0,0,0,0,0,0,0,0,0,0,0,0,0,0,0,0,0,0,0,0,0,0,0,0,0,0,0,0,0,0,0,0,0,0,0,0,0,0,0,0,0,0,0,0,0,0,0,0,0,0,0,0,0,0,0,0,0,0,0,0,0,0,0,0,0,0,0,0,0,0,0,0,0,0,0,0,0,0,0,0,0,0,0,0,0,0,0,0,0,0,0,0,0,0,0,0,0,0,0,0,0,0,0,0,0,0,0,0,0,0,0,0,0,0,0,0,0,0],"id":13,"left_children":[1,3,5,7,9,11,13,15,17,19,21,23,25,27,29,31,33,35,37,39,41,43,45,47,49,51,53,55,57,59,61,63,65,-1,67,69,71,73,75,77,79,81,83,85,87,89,91,93,95,97,99,101,103,105,107,109,111,113,115,117,119,121,123,-1,-1,-1,-1,-1,-1,-1,-1,-1,-1,-1,-1,-1,-1,-1,-1,-1,-1,-1,-1,-1,-1,-1,-1,-1,-1,-1,-1,-1,-1,-1,-1,-1,-1,-1,-1,-1,-1,-1,-1,-1,-1,-1,-1,-1,-1,-1,-1,-1,-1,-1,-1,-1,-1,-1,-1,-1,-1,-1,-1,-1,-1],"loss_changes":[6.313183E8,1.0615974E8,1.1673718E8,2.9703844E7,1.9886176E7,3.77074E7,5.133565E7,1.0428032E7,2.095645E7,3.64464E6,7.714152E6,7.307216E6,1.306094E7,8.707328E6,2.5698768E7,1.0698517E7,8.32486E5,9.225491E6,7.425306E6,1.37362E6,5.02464E5,4.657274E6,3.349448E6,1.574704E6,4.43377E6,9.205705E6,1.0564858E7,6.061288E6,7.631744E6,1.0640904E7,6.040466E6,8.570009E5,3.615648E6,0E0,3.0104E5,4.569849E6,3.9164375E6,2.207006E6,5.6900095E6,9.72085E4,6.4374E5,3.6410325E5,3.1904E5,8.92024E5,3.852922E6,1.193064E6,2.2627698E6,2.5637688E4,1.060064E6,3.573489E6,8.65462E5,2.036604E6,5.9285195E6,8.810272E6,2.17293E6,1.669864E6,7.775408E6,1.497248E6,3.7408E6,3.728552E6,2.17028E6,5.308469E6,1.26054E6,0E0,0E0,0E0,0E0,0E0,0E0,0E0,0E0,0E0,0E0,0E0,0E0,0E0,0E0,0E0,0E0,0E0,0E0,0E0,0E0,0E0,0E0,0E0,0E0,0E0,0E0,0E0,0E0,0E0,0E0,0E0,0E0,0E0,0E0,0E0,0E0,0E0,0E0,0E0,0E0,0E0,0E0,0E0,0E0,0E0,0E0,0E0,0E0,0E0,0E0,0E0,0E0,0E0,0E0,0E0,0E0,0E0,0E0,0E0,0E0,0E0,0E0],"parents":[2147483647,0,0,1,1,2,2,3,3,4,4,5,5,6,6,7,7,8,8,9,9,10,10,11,11,12,12,13,13,14,14,15,15,16,16,17,17,18,18,19,19,20,20,21,21,22,22,23,23,24,24,25,25,26,26,27,27,28,28,29,29,30,30,31,31,32,32,34,34,35,35,36,36,37,37,38,38,39,39,40,40,41,41,42,42,43,43,44,44,45,45,46,46,47,47,48,48,49,49,50,50,51,51,52,52,53,53,54,54,55,55,56,56,57,57,58,58,59,59,60,60,61,61,62,62],"right_children":[2,4,6,8,10,12,14,16,18,20,22,24,26,28,30,32,34,36,38,40,42,44,46,48,50,52,54,56,58,60,62,64,66,-1,68,70,72,74,76,78,80,82,84,86,88,90,92,94,96,98,100,102,104,106,108,110,112,114,116,118,120,122,124,-1,-1,-1,-1,-1,-1,-1,-1,-1,-1,-1,-1,-1,-1,-1,-1,-1,-1,-1,-1,-1,-1,-1,-1,-1,-1,-1,-1,-1,-1,-1,-1,-1,-1,-1,-1,-1,-1,-1,-1,-1,-1,-1,-1,-1,-1,-1,-1,-1,-1,-1,-1,-1,-1,-1,-1,-1,-1,-1,-1,-1,-1],"split_conditions":[4.390571E-1,2.89725E3,4.9952987E-1,1.4696278E3,3.127181E-1,1.9381871E3,1.2353185E-1,1.465118E4,2.89633E3,3.2E3,3.24924E3,1.4696278E3,6.66852E3,3E0,7.469E1,3.7399098E-1,3.0665034E-1,3.6424384E-1,6.48148E3,1.348022E4,3.5316E4,1.2612703E3,1.64884E4,1E0,7.03626E3,1.74997E3,1.434606E4,2.51E2,9.99E2,5.9867364E-1,6.151603E-1,7.1701E2,4.5894427E2,-1.245471E1,-1.285992E4,1.390992E4,3.3973E4,1E0,1.882331E3,-6.8E1,4.0414E4,2.6140144E-1,3.12999E3,5E0,2.4430078E-1,1.0825136E0,7E0,1.59999E3,1.1039895E0,1.3275884E3,1.4548E4,8.704267E2,4.299E4,1E1,4E0,3.70262E3,8.8441E3,3.36488E3,1.57991E3,1.435505E4,3.82141E3,1.030655E4,3.04511E3,-5.6990314E0,1.6514303E1,-1.1790949E0,-3.483159E1,-1.1391788E1,-5.5227875E1,-4.780129E-1,8.074493E0,-9.795324E0,-2.2490785E0,1.9282831E1,1.1283538E1,-2.9782026E1,4.351299E0,2.6831813E0,1.14206E1,1.4153628E1,1.9666254E1,-9.317896E0,1.4891051E1,1.8897175E1,2.207257E1,-2.2410471E1,1.5848254E1,8.272893E0,1.8741457E1,1.5656674E1,2.1689987E1,-1.9951553E1,1.2269366E1,-1.8261711E1,-3.8345704E0,-5.2431744E1,-1.5042699E1,-1.8745425E0,-2.4533375E1,-5.1754303E1,-3.1757498E1,-1.7915867E1,1.4967113E0,5.7990065E0,-1.05501585E1,-6.2550855E0,-3.902726E1,-1.3274007E0,-3.597642E1,-3.516773E1,-5.574292E1,-2.2007715E1,-5.4151417E1,-3.6892845E1,-6.440098E1,-4.9760128E1,-3.1444746E1,-2.491017E1,-4.2521038E1,-4.1551453E1,-6.5336845E1,-9.10551E0,-3.2385033E1,-1.9016966E1,-3.6713234E1],"split_indices":[21,11,21,19,21,19,23,22,13,11,13,19,2,7,15,21,21,21,2,5,0,19,4,7,2,13,5,12,11,21,21,12,16,0,15,5,0,7,19,17,0,21,13,7,23,20,8,11,20,18,22,16,0,8,6,2,2,2,15,5,2,2,2,0,0,0,0,0,0,0,0,0,0,0,0,0,0,0,0,0,0,0,0,0,0,0,0,0,0,0,0,0,0,0,0,0,0,0,0,0,0,0,0,0,0,0,0,0,0,0,0,0,0,0,0,0,0,0,0,0,0,0,0,0,0],"split_type":[0,0,0,0,0,0,0,0,0,0,0,0,0,0,0,0,0,0,0,0,0,0,0,0,0,0,0,0,0,0,0,0,0,0,0,0,0,0,0,0,0,0,0,0,0,0,0,0,0,0,0,0,0,0,0,0,0,0,0,0,0,0,0,0,0,0,0,0,0,0,0,0,0,0,0,0,0,0,0,0,0,0,0,0,0,0,0,0,0,0,0,0,0,0,0,0,0,0,0,0,0,0,0,0,0,0,0,0,0,0,0,0,0,0,0,0,0,0,0,0,0,0,0,0,0],"sum_hessian":[6.874E3,4.966E3,1.908E3,2.193E3,2.773E3,9.08E2,1E3,1.01E2,2.092E3,1.423E3,1.35E3,1.82E2,7.26E2,4.99E2,5.01E2,7.4E1,2.7E1,1.463E3,6.29E2,3.95E2,1.028E3,9.63E2,3.87E2,5.3E1,1.29E2,4.47E2,2.79E2,1.75E2,3.24E2,2.09E2,2.92E2,2.4E1,5E1,2E0,2.5E1,6.25E2,8.38E2,4.16E2,2.13E2,1.25E2,2.7E2,2.7E1,1.001E3,1.4E1,9.49E2,3.67E2,2E1,5E0,4.8E1,8.8E1,4.1E1,9.7E1,3.5E2,2.18E2,6.1E1,7E1,1.05E2,1.3E2,1.94E2,1.49E2,6E1,2.39E2,5.3E1,5E0,1.9E1,1E1,4E1,1E0,2.4E1,3.28E2,2.97E2,2.41E2,5.97E2,1.28E2,2.88E2,1.2E1,2.01E2,4E0,1.21E2,9.9E1,1.71E2,1E0,2.6E1,1.46E2,8.55E2,1.3E1,1E0,8.51E2,9.8E1,2.03E2,1.64E2,9E0,1.1E1,4E0,1E0,4.5E1,3E0,2.4E1,6.4E1,1.2E1,2.9E1,8.1E1,1.6E1,2.82E2,6.8E1,1.96E2,2.2E1,5E0,5.6E1,2.2E1,4.8E1,8E1,2.5E1,1E1,1.2E2,1.51E2,4.3E1,1.01E2,4.8E1,2.5E1,3.5E1,2.12E2,2.7E1,2E1,3.3E1],"tree_param":{"num_deleted":"0","num_feature":"24","num_nodes":"125","size_leaf_vector":"1"}},{"base_weights":[-3.0975003E0,1.7271901E2,-4.719399E2,1.3338502E1,2.9063187E2,-2.4270511E2,-7.053105E2,-4.7869363E2,4.0854855E1,3.5967175E2,1.7827321E2,-6.191437E2,-1.4506587E2,-8.9677783E2,-4.9436227E2,-2.643996E2,-9.17511E2,-1.5531982E0,2.5265022E2,2.72858E2,3.9728345E2,6.379576E1,2.3604741E2,-8.3269995E2,-4.721681E2,-3.0497566E1,-3.185192E2,-1.052996E3,-7.38194E2,-7.2392194E2,-2.7652444E2,2.0375432E2,-4.8907132E2,-5.6757855E2,-1.105836E3,5.6577515E1,-1.16488434E2,3.071477E2,8.554425E1,2.0744952E2,3.0736804E2,-1.5631563E1,3.9866833E2,1.07732124E2,-2.0351308E2,3.079569E2,1.3949695E2,-8.7940436E2,-1.1789581E2,-1.882172E2,-5.382374E2,-1.3234E2,7.1036E1,-1.10901146E2,-4.3627612E2,-8.594966E2,-1.1522502E3,-1.0736365E3,-6.739796E2,-6.2231903E2,-9.8110443E2,-4.599421E2,-1.4367123E2,2.204704E1,-1.5522087E0,-9.50359E-1,-2.9897327E1,-9.266197E0,-3.238493E1,-1.9241987E1,-5.7808834E1,-1.5593803E0,7.916528E0,-3.211565E0,-1.3549965E1,2.0275972E1,1.1802898E1,-6.6279182E0,9.468013E0,9.930116E0,1.82638E1,1.8415857E1,1.359791E1,1.8043892E1,2.0950645E1,2.030996E0,1.2571387E1,1.2454078E1,-1.6399015E1,1.7098783E1,7.1907573E0,7.893603E0,-9.648769E0,-2.8326715E1,-4.8859306E1,2.1944641E1,-2.5300667E1,7.4807887E0,-2.427924E1,-2.8605421E1,9.63182E0,-1.0199893E1,3.2560017E0,-2.5132673E1,4.963463E0,-1.7067099E1,-1.0669303E0,-2.5423403E1,-2.8585365E0,-1.79513E1,-4.879553E1,-5.786994E1,-8.469589E0,-1.5338124E1,-5.5385967E1,-2.9257318E1,-4.6972847E1,-2.108687E1,-3.6217033E1,-5.5698036E1,-2.5413576E1,-1.9615164E0,-2.6229263E1,-1.2479964E1,2.4749477E0],"categories":[],"categories_nodes":[],"categories_segments":[],"categories_sizes":[],"default_left":[0,0,0,0,0,0,0,0,0,0,0,0,0,0,0,0,0,0,0,0,0,0,0,0,0,0,0,0,0,0,0,0,0,0,0,0,0,0,0,0,0,0,0,0,0,0,0,0,0,0,0,0,0,0,0,0,0,0,0,0,0,0,0,0,0,0,0,0,0,0,0,0,0,0,0,0,0,0,0,0,0,0,0,0,0,0,0,0,0,0,0,0,0,0,0,0,0,0,0,0,0,0,0,0,0,0,0,0,0,0,0,0,0,0,0,0,0,0,0,0,0,0,0,0,0],"id":14,"left_children":[1,3,5,7,9,11,13,15,17,19,21,23,25,27,29,31,33,35,37,39,41,43,45,47,49,51,53,55,57,59,61,63,65,67,69,71,73,75,77,79,81,-1,83,85,87,89,91,93,95,97,99,101,103,105,107,109,111,113,115,117,119,121,123,-1,-1,-1,-1,-1,-1,-1,-1,-1,-1,-1,-1,-1,-1,-1,-1,-1,-1,-1,-1,-1,-1,-1,-1,-1,-1,-1,-1,-1,-1,-1,-1,-1,-1,-1,-1,-1,-1,-1,-1,-1,-1,-1,-1,-1,-1,-1,-1,-1,